~h ae
<BEGINHMM>
<NUMSTATES> 5
<STATE> 2
<MEAN> 39
 -6.773880e+00 -2.991877e+00 -5.917661e-01 -5.375704e+00 -7.295456e+00 -1.815538e+00 -9.070568e+00 -3.809381e+00 -4.291472e+00 -2.960835e+00 -2.913758e+00 -4.407464e+00 5.205985e+01 7.803894e-04 1.042786e-03 -1.186647e-03 -2.231209e-03 -1.278733e-04 5.086674e-04 -4.604213e-04 -2.265546e-03 -1.313078e-03 -3.152672e-04 -9.525996e-04 -1.796811e-03 5.191382e-03 1.009169e-04 1.186429e-04 9.828676e-05 1.706968e-04 1.161104e-04 7.905974e-05 1.106995e-04 7.473191e-05 2.130609e-05 -2.658203e-05 2.171954e-05 -2.908908e-05 2.814133e-04
<VARIANCE> 39
 6.656408e+01 5.835409e+01 7.190160e+01 6.879092e+01 7.102370e+01 6.692833e+01 7.815089e+01 7.929446e+01 6.314392e+01 4.112098e+01 4.676405e+01 4.451734e+01 2.380227e+02 2.566054e+00 2.689119e+00 2.777471e+00 3.092725e+00 3.423522e+00 3.210265e+00 3.566421e+00 4.221819e+00 3.451841e+00 2.829621e+00 2.887943e+00 2.502554e+00 5.127788e+00 3.897644e-01 4.275480e-01 4.329698e-01 5.216334e-01 6.080842e-01 5.654112e-01 6.353698e-01 7.319050e-01 6.103221e-01 5.274042e-01 5.284045e-01 4.593357e-01 6.864938e-01
<GCONST> 1.336660e+02
<STATE> 3
<MEAN> 39
 -6.773880e+00 -2.991877e+00 -5.917661e-01 -5.375704e+00 -7.295456e+00 -1.815538e+00 -9.070568e+00 -3.809381e+00 -4.291472e+00 -2.960835e+00 -2.913758e+00 -4.407464e+00 5.205985e+01 7.803894e-04 1.042786e-03 -1.186647e-03 -2.231209e-03 -1.278733e-04 5.086674e-04 -4.604213e-04 -2.265546e-03 -1.313078e-03 -3.152672e-04 -9.525996e-04 -1.796811e-03 5.191382e-03 1.009169e-04 1.186429e-04 9.828676e-05 1.706968e-04 1.161104e-04 7.905974e-05 1.106995e-04 7.473191e-05 2.130609e-05 -2.658203e-05 2.171954e-05 -2.908908e-05 2.814133e-04
<VARIANCE> 39
 6.656408e+01 5.835409e+01 7.190160e+01 6.879092e+01 7.102370e+01 6.692833e+01 7.815089e+01 7.929446e+01 6.314392e+01 4.112098e+01 4.676405e+01 4.451734e+01 2.380227e+02 2.566054e+00 2.689119e+00 2.777471e+00 3.092725e+00 3.423522e+00 3.210265e+00 3.566421e+00 4.221819e+00 3.451841e+00 2.829621e+00 2.887943e+00 2.502554e+00 5.127788e+00 3.897644e-01 4.275480e-01 4.329698e-01 5.216334e-01 6.080842e-01 5.654112e-01 6.353698e-01 7.319050e-01 6.103221e-01 5.274042e-01 5.284045e-01 4.593357e-01 6.864938e-01
<GCONST> 1.336660e+02
<STATE> 4
<MEAN> 39
 -6.773880e+00 -2.991877e+00 -5.917661e-01 -5.375704e+00 -7.295456e+00 -1.815538e+00 -9.070568e+00 -3.809381e+00 -4.291472e+00 -2.960835e+00 -2.913758e+00 -4.407464e+00 5.205985e+01 7.803894e-04 1.042786e-03 -1.186647e-03 -2.231209e-03 -1.278733e-04 5.086674e-04 -4.604213e-04 -2.265546e-03 -1.313078e-03 -3.152672e-04 -9.525996e-04 -1.796811e-03 5.191382e-03 1.009169e-04 1.186429e-04 9.828676e-05 1.706968e-04 1.161104e-04 7.905974e-05 1.106995e-04 7.473191e-05 2.130609e-05 -2.658203e-05 2.171954e-05 -2.908908e-05 2.814133e-04
<VARIANCE> 39
 6.656408e+01 5.835409e+01 7.190160e+01 6.879092e+01 7.102370e+01 6.692833e+01 7.815089e+01 7.929446e+01 6.314392e+01 4.112098e+01 4.676405e+01 4.451734e+01 2.380227e+02 2.566054e+00 2.689119e+00 2.777471e+00 3.092725e+00 3.423522e+00 3.210265e+00 3.566421e+00 4.221819e+00 3.451841e+00 2.829621e+00 2.887943e+00 2.502554e+00 5.127788e+00 3.897644e-01 4.275480e-01 4.329698e-01 5.216334e-01 6.080842e-01 5.654112e-01 6.353698e-01 7.319050e-01 6.103221e-01 5.274042e-01 5.284045e-01 4.593357e-01 6.864938e-01
<GCONST> 1.336660e+02
<TRANSP> 5
 0.000000e+00 1.000000e+00 0.000000e+00 0.000000e+00 0.000000e+00
 0.000000e+00 6.000000e-01 4.000000e-01 0.000000e+00 0.000000e+00
 0.000000e+00 0.000000e+00 6.000000e-01 4.000000e-01 0.000000e+00
 0.000000e+00 0.000000e+00 0.000000e+00 7.000000e-01 3.000000e-01
 0.000000e+00 0.000000e+00 0.000000e+00 0.000000e+00 0.000000e+00
<ENDHMM>
~h b
<BEGINHMM>
<NUMSTATES> 5
<STATE> 2
<MEAN> 39
 -6.773880e+00 -2.991877e+00 -5.917661e-01 -5.375704e+00 -7.295456e+00 -1.815538e+00 -9.070568e+00 -3.809381e+00 -4.291472e+00 -2.960835e+00 -2.913758e+00 -4.407464e+00 5.205985e+01 7.803894e-04 1.042786e-03 -1.186647e-03 -2.231209e-03 -1.278733e-04 5.086674e-04 -4.604213e-04 -2.265546e-03 -1.313078e-03 -3.152672e-04 -9.525996e-04 -1.796811e-03 5.191382e-03 1.009169e-04 1.186429e-04 9.828676e-05 1.706968e-04 1.161104e-04 7.905974e-05 1.106995e-04 7.473191e-05 2.130609e-05 -2.658203e-05 2.171954e-05 -2.908908e-05 2.814133e-04
<VARIANCE> 39
 6.656408e+01 5.835409e+01 7.190160e+01 6.879092e+01 7.102370e+01 6.692833e+01 7.815089e+01 7.929446e+01 6.314392e+01 4.112098e+01 4.676405e+01 4.451734e+01 2.380227e+02 2.566054e+00 2.689119e+00 2.777471e+00 3.092725e+00 3.423522e+00 3.210265e+00 3.566421e+00 4.221819e+00 3.451841e+00 2.829621e+00 2.887943e+00 2.502554e+00 5.127788e+00 3.897644e-01 4.275480e-01 4.329698e-01 5.216334e-01 6.080842e-01 5.654112e-01 6.353698e-01 7.319050e-01 6.103221e-01 5.274042e-01 5.284045e-01 4.593357e-01 6.864938e-01
<GCONST> 1.336660e+02
<STATE> 3
<MEAN> 39
 -6.773880e+00 -2.991877e+00 -5.917661e-01 -5.375704e+00 -7.295456e+00 -1.815538e+00 -9.070568e+00 -3.809381e+00 -4.291472e+00 -2.960835e+00 -2.913758e+00 -4.407464e+00 5.205985e+01 7.803894e-04 1.042786e-03 -1.186647e-03 -2.231209e-03 -1.278733e-04 5.086674e-04 -4.604213e-04 -2.265546e-03 -1.313078e-03 -3.152672e-04 -9.525996e-04 -1.796811e-03 5.191382e-03 1.009169e-04 1.186429e-04 9.828676e-05 1.706968e-04 1.161104e-04 7.905974e-05 1.106995e-04 7.473191e-05 2.130609e-05 -2.658203e-05 2.171954e-05 -2.908908e-05 2.814133e-04
<VARIANCE> 39
 6.656408e+01 5.835409e+01 7.190160e+01 6.879092e+01 7.102370e+01 6.692833e+01 7.815089e+01 7.929446e+01 6.314392e+01 4.112098e+01 4.676405e+01 4.451734e+01 2.380227e+02 2.566054e+00 2.689119e+00 2.777471e+00 3.092725e+00 3.423522e+00 3.210265e+00 3.566421e+00 4.221819e+00 3.451841e+00 2.829621e+00 2.887943e+00 2.502554e+00 5.127788e+00 3.897644e-01 4.275480e-01 4.329698e-01 5.216334e-01 6.080842e-01 5.654112e-01 6.353698e-01 7.319050e-01 6.103221e-01 5.274042e-01 5.284045e-01 4.593357e-01 6.864938e-01
<GCONST> 1.336660e+02
<STATE> 4
<MEAN> 39
 -6.773880e+00 -2.991877e+00 -5.917661e-01 -5.375704e+00 -7.295456e+00 -1.815538e+00 -9.070568e+00 -3.809381e+00 -4.291472e+00 -2.960835e+00 -2.913758e+00 -4.407464e+00 5.205985e+01 7.803894e-04 1.042786e-03 -1.186647e-03 -2.231209e-03 -1.278733e-04 5.086674e-04 -4.604213e-04 -2.265546e-03 -1.313078e-03 -3.152672e-04 -9.525996e-04 -1.796811e-03 5.191382e-03 1.009169e-04 1.186429e-04 9.828676e-05 1.706968e-04 1.161104e-04 7.905974e-05 1.106995e-04 7.473191e-05 2.130609e-05 -2.658203e-05 2.171954e-05 -2.908908e-05 2.814133e-04
<VARIANCE> 39
 6.656408e+01 5.835409e+01 7.190160e+01 6.879092e+01 7.102370e+01 6.692833e+01 7.815089e+01 7.929446e+01 6.314392e+01 4.112098e+01 4.676405e+01 4.451734e+01 2.380227e+02 2.566054e+00 2.689119e+00 2.777471e+00 3.092725e+00 3.423522e+00 3.210265e+00 3.566421e+00 4.221819e+00 3.451841e+00 2.829621e+00 2.887943e+00 2.502554e+00 5.127788e+00 3.897644e-01 4.275480e-01 4.329698e-01 5.216334e-01 6.080842e-01 5.654112e-01 6.353698e-01 7.319050e-01 6.103221e-01 5.274042e-01 5.284045e-01 4.593357e-01 6.864938e-01
<GCONST> 1.336660e+02
<TRANSP> 5
 0.000000e+00 1.000000e+00 0.000000e+00 0.000000e+00 0.000000e+00
 0.000000e+00 6.000000e-01 4.000000e-01 0.000000e+00 0.000000e+00
 0.000000e+00 0.000000e+00 6.000000e-01 4.000000e-01 0.000000e+00
 0.000000e+00 0.000000e+00 0.000000e+00 7.000000e-01 3.000000e-01
 0.000000e+00 0.000000e+00 0.000000e+00 0.000000e+00 0.000000e+00
<ENDHMM>
~h ah
<BEGINHMM>
<NUMSTATES> 5
<STATE> 2
<MEAN> 39
 -6.773880e+00 -2.991877e+00 -5.917661e-01 -5.375704e+00 -7.295456e+00 -1.815538e+00 -9.070568e+00 -3.809381e+00 -4.291472e+00 -2.960835e+00 -2.913758e+00 -4.407464e+00 5.205985e+01 7.803894e-04 1.042786e-03 -1.186647e-03 -2.231209e-03 -1.278733e-04 5.086674e-04 -4.604213e-04 -2.265546e-03 -1.313078e-03 -3.152672e-04 -9.525996e-04 -1.796811e-03 5.191382e-03 1.009169e-04 1.186429e-04 9.828676e-05 1.706968e-04 1.161104e-04 7.905974e-05 1.106995e-04 7.473191e-05 2.130609e-05 -2.658203e-05 2.171954e-05 -2.908908e-05 2.814133e-04
<VARIANCE> 39
 6.656408e+01 5.835409e+01 7.190160e+01 6.879092e+01 7.102370e+01 6.692833e+01 7.815089e+01 7.929446e+01 6.314392e+01 4.112098e+01 4.676405e+01 4.451734e+01 2.380227e+02 2.566054e+00 2.689119e+00 2.777471e+00 3.092725e+00 3.423522e+00 3.210265e+00 3.566421e+00 4.221819e+00 3.451841e+00 2.829621e+00 2.887943e+00 2.502554e+00 5.127788e+00 3.897644e-01 4.275480e-01 4.329698e-01 5.216334e-01 6.080842e-01 5.654112e-01 6.353698e-01 7.319050e-01 6.103221e-01 5.274042e-01 5.284045e-01 4.593357e-01 6.864938e-01
<GCONST> 1.336660e+02
<STATE> 3
<MEAN> 39
 -6.773880e+00 -2.991877e+00 -5.917661e-01 -5.375704e+00 -7.295456e+00 -1.815538e+00 -9.070568e+00 -3.809381e+00 -4.291472e+00 -2.960835e+00 -2.913758e+00 -4.407464e+00 5.205985e+01 7.803894e-04 1.042786e-03 -1.186647e-03 -2.231209e-03 -1.278733e-04 5.086674e-04 -4.604213e-04 -2.265546e-03 -1.313078e-03 -3.152672e-04 -9.525996e-04 -1.796811e-03 5.191382e-03 1.009169e-04 1.186429e-04 9.828676e-05 1.706968e-04 1.161104e-04 7.905974e-05 1.106995e-04 7.473191e-05 2.130609e-05 -2.658203e-05 2.171954e-05 -2.908908e-05 2.814133e-04
<VARIANCE> 39
 6.656408e+01 5.835409e+01 7.190160e+01 6.879092e+01 7.102370e+01 6.692833e+01 7.815089e+01 7.929446e+01 6.314392e+01 4.112098e+01 4.676405e+01 4.451734e+01 2.380227e+02 2.566054e+00 2.689119e+00 2.777471e+00 3.092725e+00 3.423522e+00 3.210265e+00 3.566421e+00 4.221819e+00 3.451841e+00 2.829621e+00 2.887943e+00 2.502554e+00 5.127788e+00 3.897644e-01 4.275480e-01 4.329698e-01 5.216334e-01 6.080842e-01 5.654112e-01 6.353698e-01 7.319050e-01 6.103221e-01 5.274042e-01 5.284045e-01 4.593357e-01 6.864938e-01
<GCONST> 1.336660e+02
<STATE> 4
<MEAN> 39
 -6.773880e+00 -2.991877e+00 -5.917661e-01 -5.375704e+00 -7.295456e+00 -1.815538e+00 -9.070568e+00 -3.809381e+00 -4.291472e+00 -2.960835e+00 -2.913758e+00 -4.407464e+00 5.205985e+01 7.803894e-04 1.042786e-03 -1.186647e-03 -2.231209e-03 -1.278733e-04 5.086674e-04 -4.604213e-04 -2.265546e-03 -1.313078e-03 -3.152672e-04 -9.525996e-04 -1.796811e-03 5.191382e-03 1.009169e-04 1.186429e-04 9.828676e-05 1.706968e-04 1.161104e-04 7.905974e-05 1.106995e-04 7.473191e-05 2.130609e-05 -2.658203e-05 2.171954e-05 -2.908908e-05 2.814133e-04
<VARIANCE> 39
 6.656408e+01 5.835409e+01 7.190160e+01 6.879092e+01 7.102370e+01 6.692833e+01 7.815089e+01 7.929446e+01 6.314392e+01 4.112098e+01 4.676405e+01 4.451734e+01 2.380227e+02 2.566054e+00 2.689119e+00 2.777471e+00 3.092725e+00 3.423522e+00 3.210265e+00 3.566421e+00 4.221819e+00 3.451841e+00 2.829621e+00 2.887943e+00 2.502554e+00 5.127788e+00 3.897644e-01 4.275480e-01 4.329698e-01 5.216334e-01 6.080842e-01 5.654112e-01 6.353698e-01 7.319050e-01 6.103221e-01 5.274042e-01 5.284045e-01 4.593357e-01 6.864938e-01
<GCONST> 1.336660e+02
<TRANSP> 5
 0.000000e+00 1.000000e+00 0.000000e+00 0.000000e+00 0.000000e+00
 0.000000e+00 6.000000e-01 4.000000e-01 0.000000e+00 0.000000e+00
 0.000000e+00 0.000000e+00 6.000000e-01 4.000000e-01 0.000000e+00
 0.000000e+00 0.000000e+00 0.000000e+00 7.000000e-01 3.000000e-01
 0.000000e+00 0.000000e+00 0.000000e+00 0.000000e+00 0.000000e+00
<ENDHMM>
~h l
<BEGINHMM>
<NUMSTATES> 5
<STATE> 2
<MEAN> 39
 -6.773880e+00 -2.991877e+00 -5.917661e-01 -5.375704e+00 -7.295456e+00 -1.815538e+00 -9.070568e+00 -3.809381e+00 -4.291472e+00 -2.960835e+00 -2.913758e+00 -4.407464e+00 5.205985e+01 7.803894e-04 1.042786e-03 -1.186647e-03 -2.231209e-03 -1.278733e-04 5.086674e-04 -4.604213e-04 -2.265546e-03 -1.313078e-03 -3.152672e-04 -9.525996e-04 -1.796811e-03 5.191382e-03 1.009169e-04 1.186429e-04 9.828676e-05 1.706968e-04 1.161104e-04 7.905974e-05 1.106995e-04 7.473191e-05 2.130609e-05 -2.658203e-05 2.171954e-05 -2.908908e-05 2.814133e-04
<VARIANCE> 39
 6.656408e+01 5.835409e+01 7.190160e+01 6.879092e+01 7.102370e+01 6.692833e+01 7.815089e+01 7.929446e+01 6.314392e+01 4.112098e+01 4.676405e+01 4.451734e+01 2.380227e+02 2.566054e+00 2.689119e+00 2.777471e+00 3.092725e+00 3.423522e+00 3.210265e+00 3.566421e+00 4.221819e+00 3.451841e+00 2.829621e+00 2.887943e+00 2.502554e+00 5.127788e+00 3.897644e-01 4.275480e-01 4.329698e-01 5.216334e-01 6.080842e-01 5.654112e-01 6.353698e-01 7.319050e-01 6.103221e-01 5.274042e-01 5.284045e-01 4.593357e-01 6.864938e-01
<GCONST> 1.336660e+02
<STATE> 3
<MEAN> 39
 -6.773880e+00 -2.991877e+00 -5.917661e-01 -5.375704e+00 -7.295456e+00 -1.815538e+00 -9.070568e+00 -3.809381e+00 -4.291472e+00 -2.960835e+00 -2.913758e+00 -4.407464e+00 5.205985e+01 7.803894e-04 1.042786e-03 -1.186647e-03 -2.231209e-03 -1.278733e-04 5.086674e-04 -4.604213e-04 -2.265546e-03 -1.313078e-03 -3.152672e-04 -9.525996e-04 -1.796811e-03 5.191382e-03 1.009169e-04 1.186429e-04 9.828676e-05 1.706968e-04 1.161104e-04 7.905974e-05 1.106995e-04 7.473191e-05 2.130609e-05 -2.658203e-05 2.171954e-05 -2.908908e-05 2.814133e-04
<VARIANCE> 39
 6.656408e+01 5.835409e+01 7.190160e+01 6.879092e+01 7.102370e+01 6.692833e+01 7.815089e+01 7.929446e+01 6.314392e+01 4.112098e+01 4.676405e+01 4.451734e+01 2.380227e+02 2.566054e+00 2.689119e+00 2.777471e+00 3.092725e+00 3.423522e+00 3.210265e+00 3.566421e+00 4.221819e+00 3.451841e+00 2.829621e+00 2.887943e+00 2.502554e+00 5.127788e+00 3.897644e-01 4.275480e-01 4.329698e-01 5.216334e-01 6.080842e-01 5.654112e-01 6.353698e-01 7.319050e-01 6.103221e-01 5.274042e-01 5.284045e-01 4.593357e-01 6.864938e-01
<GCONST> 1.336660e+02
<STATE> 4
<MEAN> 39
 -6.773880e+00 -2.991877e+00 -5.917661e-01 -5.375704e+00 -7.295456e+00 -1.815538e+00 -9.070568e+00 -3.809381e+00 -4.291472e+00 -2.960835e+00 -2.913758e+00 -4.407464e+00 5.205985e+01 7.803894e-04 1.042786e-03 -1.186647e-03 -2.231209e-03 -1.278733e-04 5.086674e-04 -4.604213e-04 -2.265546e-03 -1.313078e-03 -3.152672e-04 -9.525996e-04 -1.796811e-03 5.191382e-03 1.009169e-04 1.186429e-04 9.828676e-05 1.706968e-04 1.161104e-04 7.905974e-05 1.106995e-04 7.473191e-05 2.130609e-05 -2.658203e-05 2.171954e-05 -2.908908e-05 2.814133e-04
<VARIANCE> 39
 6.656408e+01 5.835409e+01 7.190160e+01 6.879092e+01 7.102370e+01 6.692833e+01 7.815089e+01 7.929446e+01 6.314392e+01 4.112098e+01 4.676405e+01 4.451734e+01 2.380227e+02 2.566054e+00 2.689119e+00 2.777471e+00 3.092725e+00 3.423522e+00 3.210265e+00 3.566421e+00 4.221819e+00 3.451841e+00 2.829621e+00 2.887943e+00 2.502554e+00 5.127788e+00 3.897644e-01 4.275480e-01 4.329698e-01 5.216334e-01 6.080842e-01 5.654112e-01 6.353698e-01 7.319050e-01 6.103221e-01 5.274042e-01 5.284045e-01 4.593357e-01 6.864938e-01
<GCONST> 1.336660e+02
<TRANSP> 5
 0.000000e+00 1.000000e+00 0.000000e+00 0.000000e+00 0.000000e+00
 0.000000e+00 6.000000e-01 4.000000e-01 0.000000e+00 0.000000e+00
 0.000000e+00 0.000000e+00 6.000000e-01 4.000000e-01 0.000000e+00
 0.000000e+00 0.000000e+00 0.000000e+00 7.000000e-01 3.000000e-01
 0.000000e+00 0.000000e+00 0.000000e+00 0.000000e+00 0.000000e+00
<ENDHMM>
~h ow
<BEGINHMM>
<NUMSTATES> 5
<STATE> 2
<MEAN> 39
 -6.773880e+00 -2.991877e+00 -5.917661e-01 -5.375704e+00 -7.295456e+00 -1.815538e+00 -9.070568e+00 -3.809381e+00 -4.291472e+00 -2.960835e+00 -2.913758e+00 -4.407464e+00 5.205985e+01 7.803894e-04 1.042786e-03 -1.186647e-03 -2.231209e-03 -1.278733e-04 5.086674e-04 -4.604213e-04 -2.265546e-03 -1.313078e-03 -3.152672e-04 -9.525996e-04 -1.796811e-03 5.191382e-03 1.009169e-04 1.186429e-04 9.828676e-05 1.706968e-04 1.161104e-04 7.905974e-05 1.106995e-04 7.473191e-05 2.130609e-05 -2.658203e-05 2.171954e-05 -2.908908e-05 2.814133e-04
<VARIANCE> 39
 6.656408e+01 5.835409e+01 7.190160e+01 6.879092e+01 7.102370e+01 6.692833e+01 7.815089e+01 7.929446e+01 6.314392e+01 4.112098e+01 4.676405e+01 4.451734e+01 2.380227e+02 2.566054e+00 2.689119e+00 2.777471e+00 3.092725e+00 3.423522e+00 3.210265e+00 3.566421e+00 4.221819e+00 3.451841e+00 2.829621e+00 2.887943e+00 2.502554e+00 5.127788e+00 3.897644e-01 4.275480e-01 4.329698e-01 5.216334e-01 6.080842e-01 5.654112e-01 6.353698e-01 7.319050e-01 6.103221e-01 5.274042e-01 5.284045e-01 4.593357e-01 6.864938e-01
<GCONST> 1.336660e+02
<STATE> 3
<MEAN> 39
 -6.773880e+00 -2.991877e+00 -5.917661e-01 -5.375704e+00 -7.295456e+00 -1.815538e+00 -9.070568e+00 -3.809381e+00 -4.291472e+00 -2.960835e+00 -2.913758e+00 -4.407464e+00 5.205985e+01 7.803894e-04 1.042786e-03 -1.186647e-03 -2.231209e-03 -1.278733e-04 5.086674e-04 -4.604213e-04 -2.265546e-03 -1.313078e-03 -3.152672e-04 -9.525996e-04 -1.796811e-03 5.191382e-03 1.009169e-04 1.186429e-04 9.828676e-05 1.706968e-04 1.161104e-04 7.905974e-05 1.106995e-04 7.473191e-05 2.130609e-05 -2.658203e-05 2.171954e-05 -2.908908e-05 2.814133e-04
<VARIANCE> 39
 6.656408e+01 5.835409e+01 7.190160e+01 6.879092e+01 7.102370e+01 6.692833e+01 7.815089e+01 7.929446e+01 6.314392e+01 4.112098e+01 4.676405e+01 4.451734e+01 2.380227e+02 2.566054e+00 2.689119e+00 2.777471e+00 3.092725e+00 3.423522e+00 3.210265e+00 3.566421e+00 4.221819e+00 3.451841e+00 2.829621e+00 2.887943e+00 2.502554e+00 5.127788e+00 3.897644e-01 4.275480e-01 4.329698e-01 5.216334e-01 6.080842e-01 5.654112e-01 6.353698e-01 7.319050e-01 6.103221e-01 5.274042e-01 5.284045e-01 4.593357e-01 6.864938e-01
<GCONST> 1.336660e+02
<STATE> 4
<MEAN> 39
 -6.773880e+00 -2.991877e+00 -5.917661e-01 -5.375704e+00 -7.295456e+00 -1.815538e+00 -9.070568e+00 -3.809381e+00 -4.291472e+00 -2.960835e+00 -2.913758e+00 -4.407464e+00 5.205985e+01 7.803894e-04 1.042786e-03 -1.186647e-03 -2.231209e-03 -1.278733e-04 5.086674e-04 -4.604213e-04 -2.265546e-03 -1.313078e-03 -3.152672e-04 -9.525996e-04 -1.796811e-03 5.191382e-03 1.009169e-04 1.186429e-04 9.828676e-05 1.706968e-04 1.161104e-04 7.905974e-05 1.106995e-04 7.473191e-05 2.130609e-05 -2.658203e-05 2.171954e-05 -2.908908e-05 2.814133e-04
<VARIANCE> 39
 6.656408e+01 5.835409e+01 7.190160e+01 6.879092e+01 7.102370e+01 6.692833e+01 7.815089e+01 7.929446e+01 6.314392e+01 4.112098e+01 4.676405e+01 4.451734e+01 2.380227e+02 2.566054e+00 2.689119e+00 2.777471e+00 3.092725e+00 3.423522e+00 3.210265e+00 3.566421e+00 4.221819e+00 3.451841e+00 2.829621e+00 2.887943e+00 2.502554e+00 5.127788e+00 3.897644e-01 4.275480e-01 4.329698e-01 5.216334e-01 6.080842e-01 5.654112e-01 6.353698e-01 7.319050e-01 6.103221e-01 5.274042e-01 5.284045e-01 4.593357e-01 6.864938e-01
<GCONST> 1.336660e+02
<TRANSP> 5
 0.000000e+00 1.000000e+00 0.000000e+00 0.000000e+00 0.000000e+00
 0.000000e+00 6.000000e-01 4.000000e-01 0.000000e+00 0.000000e+00
 0.000000e+00 0.000000e+00 6.000000e-01 4.000000e-01 0.000000e+00
 0.000000e+00 0.000000e+00 0.000000e+00 7.000000e-01 3.000000e-01
 0.000000e+00 0.000000e+00 0.000000e+00 0.000000e+00 0.000000e+00
<ENDHMM>
~h n
<BEGINHMM>
<NUMSTATES> 5
<STATE> 2
<MEAN> 39
 -6.773880e+00 -2.991877e+00 -5.917661e-01 -5.375704e+00 -7.295456e+00 -1.815538e+00 -9.070568e+00 -3.809381e+00 -4.291472e+00 -2.960835e+00 -2.913758e+00 -4.407464e+00 5.205985e+01 7.803894e-04 1.042786e-03 -1.186647e-03 -2.231209e-03 -1.278733e-04 5.086674e-04 -4.604213e-04 -2.265546e-03 -1.313078e-03 -3.152672e-04 -9.525996e-04 -1.796811e-03 5.191382e-03 1.009169e-04 1.186429e-04 9.828676e-05 1.706968e-04 1.161104e-04 7.905974e-05 1.106995e-04 7.473191e-05 2.130609e-05 -2.658203e-05 2.171954e-05 -2.908908e-05 2.814133e-04
<VARIANCE> 39
 6.656408e+01 5.835409e+01 7.190160e+01 6.879092e+01 7.102370e+01 6.692833e+01 7.815089e+01 7.929446e+01 6.314392e+01 4.112098e+01 4.676405e+01 4.451734e+01 2.380227e+02 2.566054e+00 2.689119e+00 2.777471e+00 3.092725e+00 3.423522e+00 3.210265e+00 3.566421e+00 4.221819e+00 3.451841e+00 2.829621e+00 2.887943e+00 2.502554e+00 5.127788e+00 3.897644e-01 4.275480e-01 4.329698e-01 5.216334e-01 6.080842e-01 5.654112e-01 6.353698e-01 7.319050e-01 6.103221e-01 5.274042e-01 5.284045e-01 4.593357e-01 6.864938e-01
<GCONST> 1.336660e+02
<STATE> 3
<MEAN> 39
 -6.773880e+00 -2.991877e+00 -5.917661e-01 -5.375704e+00 -7.295456e+00 -1.815538e+00 -9.070568e+00 -3.809381e+00 -4.291472e+00 -2.960835e+00 -2.913758e+00 -4.407464e+00 5.205985e+01 7.803894e-04 1.042786e-03 -1.186647e-03 -2.231209e-03 -1.278733e-04 5.086674e-04 -4.604213e-04 -2.265546e-03 -1.313078e-03 -3.152672e-04 -9.525996e-04 -1.796811e-03 5.191382e-03 1.009169e-04 1.186429e-04 9.828676e-05 1.706968e-04 1.161104e-04 7.905974e-05 1.106995e-04 7.473191e-05 2.130609e-05 -2.658203e-05 2.171954e-05 -2.908908e-05 2.814133e-04
<VARIANCE> 39
 6.656408e+01 5.835409e+01 7.190160e+01 6.879092e+01 7.102370e+01 6.692833e+01 7.815089e+01 7.929446e+01 6.314392e+01 4.112098e+01 4.676405e+01 4.451734e+01 2.380227e+02 2.566054e+00 2.689119e+00 2.777471e+00 3.092725e+00 3.423522e+00 3.210265e+00 3.566421e+00 4.221819e+00 3.451841e+00 2.829621e+00 2.887943e+00 2.502554e+00 5.127788e+00 3.897644e-01 4.275480e-01 4.329698e-01 5.216334e-01 6.080842e-01 5.654112e-01 6.353698e-01 7.319050e-01 6.103221e-01 5.274042e-01 5.284045e-01 4.593357e-01 6.864938e-01
<GCONST> 1.336660e+02
<STATE> 4
<MEAN> 39
 -6.773880e+00 -2.991877e+00 -5.917661e-01 -5.375704e+00 -7.295456e+00 -1.815538e+00 -9.070568e+00 -3.809381e+00 -4.291472e+00 -2.960835e+00 -2.913758e+00 -4.407464e+00 5.205985e+01 7.803894e-04 1.042786e-03 -1.186647e-03 -2.231209e-03 -1.278733e-04 5.086674e-04 -4.604213e-04 -2.265546e-03 -1.313078e-03 -3.152672e-04 -9.525996e-04 -1.796811e-03 5.191382e-03 1.009169e-04 1.186429e-04 9.828676e-05 1.706968e-04 1.161104e-04 7.905974e-05 1.106995e-04 7.473191e-05 2.130609e-05 -2.658203e-05 2.171954e-05 -2.908908e-05 2.814133e-04
<VARIANCE> 39
 6.656408e+01 5.835409e+01 7.190160e+01 6.879092e+01 7.102370e+01 6.692833e+01 7.815089e+01 7.929446e+01 6.314392e+01 4.112098e+01 4.676405e+01 4.451734e+01 2.380227e+02 2.566054e+00 2.689119e+00 2.777471e+00 3.092725e+00 3.423522e+00 3.210265e+00 3.566421e+00 4.221819e+00 3.451841e+00 2.829621e+00 2.887943e+00 2.502554e+00 5.127788e+00 3.897644e-01 4.275480e-01 4.329698e-01 5.216334e-01 6.080842e-01 5.654112e-01 6.353698e-01 7.319050e-01 6.103221e-01 5.274042e-01 5.284045e-01 4.593357e-01 6.864938e-01
<GCONST> 1.336660e+02
<TRANSP> 5
 0.000000e+00 1.000000e+00 0.000000e+00 0.000000e+00 0.000000e+00
 0.000000e+00 6.000000e-01 4.000000e-01 0.000000e+00 0.000000e+00
 0.000000e+00 0.000000e+00 6.000000e-01 4.000000e-01 0.000000e+00
 0.000000e+00 0.000000e+00 0.000000e+00 7.000000e-01 3.000000e-01
 0.000000e+00 0.000000e+00 0.000000e+00 0.000000e+00 0.000000e+00
<ENDHMM>
~h d
<BEGINHMM>
<NUMSTATES> 5
<STATE> 2
<MEAN> 39
 -6.773880e+00 -2.991877e+00 -5.917661e-01 -5.375704e+00 -7.295456e+00 -1.815538e+00 -9.070568e+00 -3.809381e+00 -4.291472e+00 -2.960835e+00 -2.913758e+00 -4.407464e+00 5.205985e+01 7.803894e-04 1.042786e-03 -1.186647e-03 -2.231209e-03 -1.278733e-04 5.086674e-04 -4.604213e-04 -2.265546e-03 -1.313078e-03 -3.152672e-04 -9.525996e-04 -1.796811e-03 5.191382e-03 1.009169e-04 1.186429e-04 9.828676e-05 1.706968e-04 1.161104e-04 7.905974e-05 1.106995e-04 7.473191e-05 2.130609e-05 -2.658203e-05 2.171954e-05 -2.908908e-05 2.814133e-04
<VARIANCE> 39
 6.656408e+01 5.835409e+01 7.190160e+01 6.879092e+01 7.102370e+01 6.692833e+01 7.815089e+01 7.929446e+01 6.314392e+01 4.112098e+01 4.676405e+01 4.451734e+01 2.380227e+02 2.566054e+00 2.689119e+00 2.777471e+00 3.092725e+00 3.423522e+00 3.210265e+00 3.566421e+00 4.221819e+00 3.451841e+00 2.829621e+00 2.887943e+00 2.502554e+00 5.127788e+00 3.897644e-01 4.275480e-01 4.329698e-01 5.216334e-01 6.080842e-01 5.654112e-01 6.353698e-01 7.319050e-01 6.103221e-01 5.274042e-01 5.284045e-01 4.593357e-01 6.864938e-01
<GCONST> 1.336660e+02
<STATE> 3
<MEAN> 39
 -6.773880e+00 -2.991877e+00 -5.917661e-01 -5.375704e+00 -7.295456e+00 -1.815538e+00 -9.070568e+00 -3.809381e+00 -4.291472e+00 -2.960835e+00 -2.913758e+00 -4.407464e+00 5.205985e+01 7.803894e-04 1.042786e-03 -1.186647e-03 -2.231209e-03 -1.278733e-04 5.086674e-04 -4.604213e-04 -2.265546e-03 -1.313078e-03 -3.152672e-04 -9.525996e-04 -1.796811e-03 5.191382e-03 1.009169e-04 1.186429e-04 9.828676e-05 1.706968e-04 1.161104e-04 7.905974e-05 1.106995e-04 7.473191e-05 2.130609e-05 -2.658203e-05 2.171954e-05 -2.908908e-05 2.814133e-04
<VARIANCE> 39
 6.656408e+01 5.835409e+01 7.190160e+01 6.879092e+01 7.102370e+01 6.692833e+01 7.815089e+01 7.929446e+01 6.314392e+01 4.112098e+01 4.676405e+01 4.451734e+01 2.380227e+02 2.566054e+00 2.689119e+00 2.777471e+00 3.092725e+00 3.423522e+00 3.210265e+00 3.566421e+00 4.221819e+00 3.451841e+00 2.829621e+00 2.887943e+00 2.502554e+00 5.127788e+00 3.897644e-01 4.275480e-01 4.329698e-01 5.216334e-01 6.080842e-01 5.654112e-01 6.353698e-01 7.319050e-01 6.103221e-01 5.274042e-01 5.284045e-01 4.593357e-01 6.864938e-01
<GCONST> 1.336660e+02
<STATE> 4
<MEAN> 39
 -6.773880e+00 -2.991877e+00 -5.917661e-01 -5.375704e+00 -7.295456e+00 -1.815538e+00 -9.070568e+00 -3.809381e+00 -4.291472e+00 -2.960835e+00 -2.913758e+00 -4.407464e+00 5.205985e+01 7.803894e-04 1.042786e-03 -1.186647e-03 -2.231209e-03 -1.278733e-04 5.086674e-04 -4.604213e-04 -2.265546e-03 -1.313078e-03 -3.152672e-04 -9.525996e-04 -1.796811e-03 5.191382e-03 1.009169e-04 1.186429e-04 9.828676e-05 1.706968e-04 1.161104e-04 7.905974e-05 1.106995e-04 7.473191e-05 2.130609e-05 -2.658203e-05 2.171954e-05 -2.908908e-05 2.814133e-04
<VARIANCE> 39
 6.656408e+01 5.835409e+01 7.190160e+01 6.879092e+01 7.102370e+01 6.692833e+01 7.815089e+01 7.929446e+01 6.314392e+01 4.112098e+01 4.676405e+01 4.451734e+01 2.380227e+02 2.566054e+00 2.689119e+00 2.777471e+00 3.092725e+00 3.423522e+00 3.210265e+00 3.566421e+00 4.221819e+00 3.451841e+00 2.829621e+00 2.887943e+00 2.502554e+00 5.127788e+00 3.897644e-01 4.275480e-01 4.329698e-01 5.216334e-01 6.080842e-01 5.654112e-01 6.353698e-01 7.319050e-01 6.103221e-01 5.274042e-01 5.284045e-01 4.593357e-01 6.864938e-01
<GCONST> 1.336660e+02
<TRANSP> 5
 0.000000e+00 1.000000e+00 0.000000e+00 0.000000e+00 0.000000e+00
 0.000000e+00 6.000000e-01 4.000000e-01 0.000000e+00 0.000000e+00
 0.000000e+00 0.000000e+00 6.000000e-01 4.000000e-01 0.000000e+00
 0.000000e+00 0.000000e+00 0.000000e+00 7.000000e-01 3.000000e-01
 0.000000e+00 0.000000e+00 0.000000e+00 0.000000e+00 0.000000e+00
<ENDHMM>
~h aa
<BEGINHMM>
<NUMSTATES> 5
<STATE> 2
<MEAN> 39
 -6.773880e+00 -2.991877e+00 -5.917661e-01 -5.375704e+00 -7.295456e+00 -1.815538e+00 -9.070568e+00 -3.809381e+00 -4.291472e+00 -2.960835e+00 -2.913758e+00 -4.407464e+00 5.205985e+01 7.803894e-04 1.042786e-03 -1.186647e-03 -2.231209e-03 -1.278733e-04 5.086674e-04 -4.604213e-04 -2.265546e-03 -1.313078e-03 -3.152672e-04 -9.525996e-04 -1.796811e-03 5.191382e-03 1.009169e-04 1.186429e-04 9.828676e-05 1.706968e-04 1.161104e-04 7.905974e-05 1.106995e-04 7.473191e-05 2.130609e-05 -2.658203e-05 2.171954e-05 -2.908908e-05 2.814133e-04
<VARIANCE> 39
 6.656408e+01 5.835409e+01 7.190160e+01 6.879092e+01 7.102370e+01 6.692833e+01 7.815089e+01 7.929446e+01 6.314392e+01 4.112098e+01 4.676405e+01 4.451734e+01 2.380227e+02 2.566054e+00 2.689119e+00 2.777471e+00 3.092725e+00 3.423522e+00 3.210265e+00 3.566421e+00 4.221819e+00 3.451841e+00 2.829621e+00 2.887943e+00 2.502554e+00 5.127788e+00 3.897644e-01 4.275480e-01 4.329698e-01 5.216334e-01 6.080842e-01 5.654112e-01 6.353698e-01 7.319050e-01 6.103221e-01 5.274042e-01 5.284045e-01 4.593357e-01 6.864938e-01
<GCONST> 1.336660e+02
<STATE> 3
<MEAN> 39
 -6.773880e+00 -2.991877e+00 -5.917661e-01 -5.375704e+00 -7.295456e+00 -1.815538e+00 -9.070568e+00 -3.809381e+00 -4.291472e+00 -2.960835e+00 -2.913758e+00 -4.407464e+00 5.205985e+01 7.803894e-04 1.042786e-03 -1.186647e-03 -2.231209e-03 -1.278733e-04 5.086674e-04 -4.604213e-04 -2.265546e-03 -1.313078e-03 -3.152672e-04 -9.525996e-04 -1.796811e-03 5.191382e-03 1.009169e-04 1.186429e-04 9.828676e-05 1.706968e-04 1.161104e-04 7.905974e-05 1.106995e-04 7.473191e-05 2.130609e-05 -2.658203e-05 2.171954e-05 -2.908908e-05 2.814133e-04
<VARIANCE> 39
 6.656408e+01 5.835409e+01 7.190160e+01 6.879092e+01 7.102370e+01 6.692833e+01 7.815089e+01 7.929446e+01 6.314392e+01 4.112098e+01 4.676405e+01 4.451734e+01 2.380227e+02 2.566054e+00 2.689119e+00 2.777471e+00 3.092725e+00 3.423522e+00 3.210265e+00 3.566421e+00 4.221819e+00 3.451841e+00 2.829621e+00 2.887943e+00 2.502554e+00 5.127788e+00 3.897644e-01 4.275480e-01 4.329698e-01 5.216334e-01 6.080842e-01 5.654112e-01 6.353698e-01 7.319050e-01 6.103221e-01 5.274042e-01 5.284045e-01 4.593357e-01 6.864938e-01
<GCONST> 1.336660e+02
<STATE> 4
<MEAN> 39
 -6.773880e+00 -2.991877e+00 -5.917661e-01 -5.375704e+00 -7.295456e+00 -1.815538e+00 -9.070568e+00 -3.809381e+00 -4.291472e+00 -2.960835e+00 -2.913758e+00 -4.407464e+00 5.205985e+01 7.803894e-04 1.042786e-03 -1.186647e-03 -2.231209e-03 -1.278733e-04 5.086674e-04 -4.604213e-04 -2.265546e-03 -1.313078e-03 -3.152672e-04 -9.525996e-04 -1.796811e-03 5.191382e-03 1.009169e-04 1.186429e-04 9.828676e-05 1.706968e-04 1.161104e-04 7.905974e-05 1.106995e-04 7.473191e-05 2.130609e-05 -2.658203e-05 2.171954e-05 -2.908908e-05 2.814133e-04
<VARIANCE> 39
 6.656408e+01 5.835409e+01 7.190160e+01 6.879092e+01 7.102370e+01 6.692833e+01 7.815089e+01 7.929446e+01 6.314392e+01 4.112098e+01 4.676405e+01 4.451734e+01 2.380227e+02 2.566054e+00 2.689119e+00 2.777471e+00 3.092725e+00 3.423522e+00 3.210265e+00 3.566421e+00 4.221819e+00 3.451841e+00 2.829621e+00 2.887943e+00 2.502554e+00 5.127788e+00 3.897644e-01 4.275480e-01 4.329698e-01 5.216334e-01 6.080842e-01 5.654112e-01 6.353698e-01 7.319050e-01 6.103221e-01 5.274042e-01 5.284045e-01 4.593357e-01 6.864938e-01
<GCONST> 1.336660e+02
<TRANSP> 5
 0.000000e+00 1.000000e+00 0.000000e+00 0.000000e+00 0.000000e+00
 0.000000e+00 6.000000e-01 4.000000e-01 0.000000e+00 0.000000e+00
 0.000000e+00 0.000000e+00 6.000000e-01 4.000000e-01 0.000000e+00
 0.000000e+00 0.000000e+00 0.000000e+00 7.000000e-01 3.000000e-01
 0.000000e+00 0.000000e+00 0.000000e+00 0.000000e+00 0.000000e+00
<ENDHMM>
~h m
<BEGINHMM>
<NUMSTATES> 5
<STATE> 2
<MEAN> 39
 -6.773880e+00 -2.991877e+00 -5.917661e-01 -5.375704e+00 -7.295456e+00 -1.815538e+00 -9.070568e+00 -3.809381e+00 -4.291472e+00 -2.960835e+00 -2.913758e+00 -4.407464e+00 5.205985e+01 7.803894e-04 1.042786e-03 -1.186647e-03 -2.231209e-03 -1.278733e-04 5.086674e-04 -4.604213e-04 -2.265546e-03 -1.313078e-03 -3.152672e-04 -9.525996e-04 -1.796811e-03 5.191382e-03 1.009169e-04 1.186429e-04 9.828676e-05 1.706968e-04 1.161104e-04 7.905974e-05 1.106995e-04 7.473191e-05 2.130609e-05 -2.658203e-05 2.171954e-05 -2.908908e-05 2.814133e-04
<VARIANCE> 39
 6.656408e+01 5.835409e+01 7.190160e+01 6.879092e+01 7.102370e+01 6.692833e+01 7.815089e+01 7.929446e+01 6.314392e+01 4.112098e+01 4.676405e+01 4.451734e+01 2.380227e+02 2.566054e+00 2.689119e+00 2.777471e+00 3.092725e+00 3.423522e+00 3.210265e+00 3.566421e+00 4.221819e+00 3.451841e+00 2.829621e+00 2.887943e+00 2.502554e+00 5.127788e+00 3.897644e-01 4.275480e-01 4.329698e-01 5.216334e-01 6.080842e-01 5.654112e-01 6.353698e-01 7.319050e-01 6.103221e-01 5.274042e-01 5.284045e-01 4.593357e-01 6.864938e-01
<GCONST> 1.336660e+02
<STATE> 3
<MEAN> 39
 -6.773880e+00 -2.991877e+00 -5.917661e-01 -5.375704e+00 -7.295456e+00 -1.815538e+00 -9.070568e+00 -3.809381e+00 -4.291472e+00 -2.960835e+00 -2.913758e+00 -4.407464e+00 5.205985e+01 7.803894e-04 1.042786e-03 -1.186647e-03 -2.231209e-03 -1.278733e-04 5.086674e-04 -4.604213e-04 -2.265546e-03 -1.313078e-03 -3.152672e-04 -9.525996e-04 -1.796811e-03 5.191382e-03 1.009169e-04 1.186429e-04 9.828676e-05 1.706968e-04 1.161104e-04 7.905974e-05 1.106995e-04 7.473191e-05 2.130609e-05 -2.658203e-05 2.171954e-05 -2.908908e-05 2.814133e-04
<VARIANCE> 39
 6.656408e+01 5.835409e+01 7.190160e+01 6.879092e+01 7.102370e+01 6.692833e+01 7.815089e+01 7.929446e+01 6.314392e+01 4.112098e+01 4.676405e+01 4.451734e+01 2.380227e+02 2.566054e+00 2.689119e+00 2.777471e+00 3.092725e+00 3.423522e+00 3.210265e+00 3.566421e+00 4.221819e+00 3.451841e+00 2.829621e+00 2.887943e+00 2.502554e+00 5.127788e+00 3.897644e-01 4.275480e-01 4.329698e-01 5.216334e-01 6.080842e-01 5.654112e-01 6.353698e-01 7.319050e-01 6.103221e-01 5.274042e-01 5.284045e-01 4.593357e-01 6.864938e-01
<GCONST> 1.336660e+02
<STATE> 4
<MEAN> 39
 -6.773880e+00 -2.991877e+00 -5.917661e-01 -5.375704e+00 -7.295456e+00 -1.815538e+00 -9.070568e+00 -3.809381e+00 -4.291472e+00 -2.960835e+00 -2.913758e+00 -4.407464e+00 5.205985e+01 7.803894e-04 1.042786e-03 -1.186647e-03 -2.231209e-03 -1.278733e-04 5.086674e-04 -4.604213e-04 -2.265546e-03 -1.313078e-03 -3.152672e-04 -9.525996e-04 -1.796811e-03 5.191382e-03 1.009169e-04 1.186429e-04 9.828676e-05 1.706968e-04 1.161104e-04 7.905974e-05 1.106995e-04 7.473191e-05 2.130609e-05 -2.658203e-05 2.171954e-05 -2.908908e-05 2.814133e-04
<VARIANCE> 39
 6.656408e+01 5.835409e+01 7.190160e+01 6.879092e+01 7.102370e+01 6.692833e+01 7.815089e+01 7.929446e+01 6.314392e+01 4.112098e+01 4.676405e+01 4.451734e+01 2.380227e+02 2.566054e+00 2.689119e+00 2.777471e+00 3.092725e+00 3.423522e+00 3.210265e+00 3.566421e+00 4.221819e+00 3.451841e+00 2.829621e+00 2.887943e+00 2.502554e+00 5.127788e+00 3.897644e-01 4.275480e-01 4.329698e-01 5.216334e-01 6.080842e-01 5.654112e-01 6.353698e-01 7.319050e-01 6.103221e-01 5.274042e-01 5.284045e-01 4.593357e-01 6.864938e-01
<GCONST> 1.336660e+02
<TRANSP> 5
 0.000000e+00 1.000000e+00 0.000000e+00 0.000000e+00 0.000000e+00
 0.000000e+00 6.000000e-01 4.000000e-01 0.000000e+00 0.000000e+00
 0.000000e+00 0.000000e+00 6.000000e-01 4.000000e-01 0.000000e+00
 0.000000e+00 0.000000e+00 0.000000e+00 7.000000e-01 3.000000e-01
 0.000000e+00 0.000000e+00 0.000000e+00 0.000000e+00 0.000000e+00
<ENDHMM>
~h z
<BEGINHMM>
<NUMSTATES> 5
<STATE> 2
<MEAN> 39
 -6.773880e+00 -2.991877e+00 -5.917661e-01 -5.375704e+00 -7.295456e+00 -1.815538e+00 -9.070568e+00 -3.809381e+00 -4.291472e+00 -2.960835e+00 -2.913758e+00 -4.407464e+00 5.205985e+01 7.803894e-04 1.042786e-03 -1.186647e-03 -2.231209e-03 -1.278733e-04 5.086674e-04 -4.604213e-04 -2.265546e-03 -1.313078e-03 -3.152672e-04 -9.525996e-04 -1.796811e-03 5.191382e-03 1.009169e-04 1.186429e-04 9.828676e-05 1.706968e-04 1.161104e-04 7.905974e-05 1.106995e-04 7.473191e-05 2.130609e-05 -2.658203e-05 2.171954e-05 -2.908908e-05 2.814133e-04
<VARIANCE> 39
 6.656408e+01 5.835409e+01 7.190160e+01 6.879092e+01 7.102370e+01 6.692833e+01 7.815089e+01 7.929446e+01 6.314392e+01 4.112098e+01 4.676405e+01 4.451734e+01 2.380227e+02 2.566054e+00 2.689119e+00 2.777471e+00 3.092725e+00 3.423522e+00 3.210265e+00 3.566421e+00 4.221819e+00 3.451841e+00 2.829621e+00 2.887943e+00 2.502554e+00 5.127788e+00 3.897644e-01 4.275480e-01 4.329698e-01 5.216334e-01 6.080842e-01 5.654112e-01 6.353698e-01 7.319050e-01 6.103221e-01 5.274042e-01 5.284045e-01 4.593357e-01 6.864938e-01
<GCONST> 1.336660e+02
<STATE> 3
<MEAN> 39
 -6.773880e+00 -2.991877e+00 -5.917661e-01 -5.375704e+00 -7.295456e+00 -1.815538e+00 -9.070568e+00 -3.809381e+00 -4.291472e+00 -2.960835e+00 -2.913758e+00 -4.407464e+00 5.205985e+01 7.803894e-04 1.042786e-03 -1.186647e-03 -2.231209e-03 -1.278733e-04 5.086674e-04 -4.604213e-04 -2.265546e-03 -1.313078e-03 -3.152672e-04 -9.525996e-04 -1.796811e-03 5.191382e-03 1.009169e-04 1.186429e-04 9.828676e-05 1.706968e-04 1.161104e-04 7.905974e-05 1.106995e-04 7.473191e-05 2.130609e-05 -2.658203e-05 2.171954e-05 -2.908908e-05 2.814133e-04
<VARIANCE> 39
 6.656408e+01 5.835409e+01 7.190160e+01 6.879092e+01 7.102370e+01 6.692833e+01 7.815089e+01 7.929446e+01 6.314392e+01 4.112098e+01 4.676405e+01 4.451734e+01 2.380227e+02 2.566054e+00 2.689119e+00 2.777471e+00 3.092725e+00 3.423522e+00 3.210265e+00 3.566421e+00 4.221819e+00 3.451841e+00 2.829621e+00 2.887943e+00 2.502554e+00 5.127788e+00 3.897644e-01 4.275480e-01 4.329698e-01 5.216334e-01 6.080842e-01 5.654112e-01 6.353698e-01 7.319050e-01 6.103221e-01 5.274042e-01 5.284045e-01 4.593357e-01 6.864938e-01
<GCONST> 1.336660e+02
<STATE> 4
<MEAN> 39
 -6.773880e+00 -2.991877e+00 -5.917661e-01 -5.375704e+00 -7.295456e+00 -1.815538e+00 -9.070568e+00 -3.809381e+00 -4.291472e+00 -2.960835e+00 -2.913758e+00 -4.407464e+00 5.205985e+01 7.803894e-04 1.042786e-03 -1.186647e-03 -2.231209e-03 -1.278733e-04 5.086674e-04 -4.604213e-04 -2.265546e-03 -1.313078e-03 -3.152672e-04 -9.525996e-04 -1.796811e-03 5.191382e-03 1.009169e-04 1.186429e-04 9.828676e-05 1.706968e-04 1.161104e-04 7.905974e-05 1.106995e-04 7.473191e-05 2.130609e-05 -2.658203e-05 2.171954e-05 -2.908908e-05 2.814133e-04
<VARIANCE> 39
 6.656408e+01 5.835409e+01 7.190160e+01 6.879092e+01 7.102370e+01 6.692833e+01 7.815089e+01 7.929446e+01 6.314392e+01 4.112098e+01 4.676405e+01 4.451734e+01 2.380227e+02 2.566054e+00 2.689119e+00 2.777471e+00 3.092725e+00 3.423522e+00 3.210265e+00 3.566421e+00 4.221819e+00 3.451841e+00 2.829621e+00 2.887943e+00 2.502554e+00 5.127788e+00 3.897644e-01 4.275480e-01 4.329698e-01 5.216334e-01 6.080842e-01 5.654112e-01 6.353698e-01 7.319050e-01 6.103221e-01 5.274042e-01 5.284045e-01 4.593357e-01 6.864938e-01
<GCONST> 1.336660e+02
<TRANSP> 5
 0.000000e+00 1.000000e+00 0.000000e+00 0.000000e+00 0.000000e+00
 0.000000e+00 6.000000e-01 4.000000e-01 0.000000e+00 0.000000e+00
 0.000000e+00 0.000000e+00 6.000000e-01 4.000000e-01 0.000000e+00
 0.000000e+00 0.000000e+00 0.000000e+00 7.000000e-01 3.000000e-01
 0.000000e+00 0.000000e+00 0.000000e+00 0.000000e+00 0.000000e+00
<ENDHMM>
~h ih
<BEGINHMM>
<NUMSTATES> 5
<STATE> 2
<MEAN> 39
 -6.773880e+00 -2.991877e+00 -5.917661e-01 -5.375704e+00 -7.295456e+00 -1.815538e+00 -9.070568e+00 -3.809381e+00 -4.291472e+00 -2.960835e+00 -2.913758e+00 -4.407464e+00 5.205985e+01 7.803894e-04 1.042786e-03 -1.186647e-03 -2.231209e-03 -1.278733e-04 5.086674e-04 -4.604213e-04 -2.265546e-03 -1.313078e-03 -3.152672e-04 -9.525996e-04 -1.796811e-03 5.191382e-03 1.009169e-04 1.186429e-04 9.828676e-05 1.706968e-04 1.161104e-04 7.905974e-05 1.106995e-04 7.473191e-05 2.130609e-05 -2.658203e-05 2.171954e-05 -2.908908e-05 2.814133e-04
<VARIANCE> 39
 6.656408e+01 5.835409e+01 7.190160e+01 6.879092e+01 7.102370e+01 6.692833e+01 7.815089e+01 7.929446e+01 6.314392e+01 4.112098e+01 4.676405e+01 4.451734e+01 2.380227e+02 2.566054e+00 2.689119e+00 2.777471e+00 3.092725e+00 3.423522e+00 3.210265e+00 3.566421e+00 4.221819e+00 3.451841e+00 2.829621e+00 2.887943e+00 2.502554e+00 5.127788e+00 3.897644e-01 4.275480e-01 4.329698e-01 5.216334e-01 6.080842e-01 5.654112e-01 6.353698e-01 7.319050e-01 6.103221e-01 5.274042e-01 5.284045e-01 4.593357e-01 6.864938e-01
<GCONST> 1.336660e+02
<STATE> 3
<MEAN> 39
 -6.773880e+00 -2.991877e+00 -5.917661e-01 -5.375704e+00 -7.295456e+00 -1.815538e+00 -9.070568e+00 -3.809381e+00 -4.291472e+00 -2.960835e+00 -2.913758e+00 -4.407464e+00 5.205985e+01 7.803894e-04 1.042786e-03 -1.186647e-03 -2.231209e-03 -1.278733e-04 5.086674e-04 -4.604213e-04 -2.265546e-03 -1.313078e-03 -3.152672e-04 -9.525996e-04 -1.796811e-03 5.191382e-03 1.009169e-04 1.186429e-04 9.828676e-05 1.706968e-04 1.161104e-04 7.905974e-05 1.106995e-04 7.473191e-05 2.130609e-05 -2.658203e-05 2.171954e-05 -2.908908e-05 2.814133e-04
<VARIANCE> 39
 6.656408e+01 5.835409e+01 7.190160e+01 6.879092e+01 7.102370e+01 6.692833e+01 7.815089e+01 7.929446e+01 6.314392e+01 4.112098e+01 4.676405e+01 4.451734e+01 2.380227e+02 2.566054e+00 2.689119e+00 2.777471e+00 3.092725e+00 3.423522e+00 3.210265e+00 3.566421e+00 4.221819e+00 3.451841e+00 2.829621e+00 2.887943e+00 2.502554e+00 5.127788e+00 3.897644e-01 4.275480e-01 4.329698e-01 5.216334e-01 6.080842e-01 5.654112e-01 6.353698e-01 7.319050e-01 6.103221e-01 5.274042e-01 5.284045e-01 4.593357e-01 6.864938e-01
<GCONST> 1.336660e+02
<STATE> 4
<MEAN> 39
 -6.773880e+00 -2.991877e+00 -5.917661e-01 -5.375704e+00 -7.295456e+00 -1.815538e+00 -9.070568e+00 -3.809381e+00 -4.291472e+00 -2.960835e+00 -2.913758e+00 -4.407464e+00 5.205985e+01 7.803894e-04 1.042786e-03 -1.186647e-03 -2.231209e-03 -1.278733e-04 5.086674e-04 -4.604213e-04 -2.265546e-03 -1.313078e-03 -3.152672e-04 -9.525996e-04 -1.796811e-03 5.191382e-03 1.009169e-04 1.186429e-04 9.828676e-05 1.706968e-04 1.161104e-04 7.905974e-05 1.106995e-04 7.473191e-05 2.130609e-05 -2.658203e-05 2.171954e-05 -2.908908e-05 2.814133e-04
<VARIANCE> 39
 6.656408e+01 5.835409e+01 7.190160e+01 6.879092e+01 7.102370e+01 6.692833e+01 7.815089e+01 7.929446e+01 6.314392e+01 4.112098e+01 4.676405e+01 4.451734e+01 2.380227e+02 2.566054e+00 2.689119e+00 2.777471e+00 3.092725e+00 3.423522e+00 3.210265e+00 3.566421e+00 4.221819e+00 3.451841e+00 2.829621e+00 2.887943e+00 2.502554e+00 5.127788e+00 3.897644e-01 4.275480e-01 4.329698e-01 5.216334e-01 6.080842e-01 5.654112e-01 6.353698e-01 7.319050e-01 6.103221e-01 5.274042e-01 5.284045e-01 4.593357e-01 6.864938e-01
<GCONST> 1.336660e+02
<TRANSP> 5
 0.000000e+00 1.000000e+00 0.000000e+00 0.000000e+00 0.000000e+00
 0.000000e+00 6.000000e-01 4.000000e-01 0.000000e+00 0.000000e+00
 0.000000e+00 0.000000e+00 6.000000e-01 4.000000e-01 0.000000e+00
 0.000000e+00 0.000000e+00 0.000000e+00 7.000000e-01 3.000000e-01
 0.000000e+00 0.000000e+00 0.000000e+00 0.000000e+00 0.000000e+00
<ENDHMM>
~h sh
<BEGINHMM>
<NUMSTATES> 5
<STATE> 2
<MEAN> 39
 -6.773880e+00 -2.991877e+00 -5.917661e-01 -5.375704e+00 -7.295456e+00 -1.815538e+00 -9.070568e+00 -3.809381e+00 -4.291472e+00 -2.960835e+00 -2.913758e+00 -4.407464e+00 5.205985e+01 7.803894e-04 1.042786e-03 -1.186647e-03 -2.231209e-03 -1.278733e-04 5.086674e-04 -4.604213e-04 -2.265546e-03 -1.313078e-03 -3.152672e-04 -9.525996e-04 -1.796811e-03 5.191382e-03 1.009169e-04 1.186429e-04 9.828676e-05 1.706968e-04 1.161104e-04 7.905974e-05 1.106995e-04 7.473191e-05 2.130609e-05 -2.658203e-05 2.171954e-05 -2.908908e-05 2.814133e-04
<VARIANCE> 39
 6.656408e+01 5.835409e+01 7.190160e+01 6.879092e+01 7.102370e+01 6.692833e+01 7.815089e+01 7.929446e+01 6.314392e+01 4.112098e+01 4.676405e+01 4.451734e+01 2.380227e+02 2.566054e+00 2.689119e+00 2.777471e+00 3.092725e+00 3.423522e+00 3.210265e+00 3.566421e+00 4.221819e+00 3.451841e+00 2.829621e+00 2.887943e+00 2.502554e+00 5.127788e+00 3.897644e-01 4.275480e-01 4.329698e-01 5.216334e-01 6.080842e-01 5.654112e-01 6.353698e-01 7.319050e-01 6.103221e-01 5.274042e-01 5.284045e-01 4.593357e-01 6.864938e-01
<GCONST> 1.336660e+02
<STATE> 3
<MEAN> 39
 -6.773880e+00 -2.991877e+00 -5.917661e-01 -5.375704e+00 -7.295456e+00 -1.815538e+00 -9.070568e+00 -3.809381e+00 -4.291472e+00 -2.960835e+00 -2.913758e+00 -4.407464e+00 5.205985e+01 7.803894e-04 1.042786e-03 -1.186647e-03 -2.231209e-03 -1.278733e-04 5.086674e-04 -4.604213e-04 -2.265546e-03 -1.313078e-03 -3.152672e-04 -9.525996e-04 -1.796811e-03 5.191382e-03 1.009169e-04 1.186429e-04 9.828676e-05 1.706968e-04 1.161104e-04 7.905974e-05 1.106995e-04 7.473191e-05 2.130609e-05 -2.658203e-05 2.171954e-05 -2.908908e-05 2.814133e-04
<VARIANCE> 39
 6.656408e+01 5.835409e+01 7.190160e+01 6.879092e+01 7.102370e+01 6.692833e+01 7.815089e+01 7.929446e+01 6.314392e+01 4.112098e+01 4.676405e+01 4.451734e+01 2.380227e+02 2.566054e+00 2.689119e+00 2.777471e+00 3.092725e+00 3.423522e+00 3.210265e+00 3.566421e+00 4.221819e+00 3.451841e+00 2.829621e+00 2.887943e+00 2.502554e+00 5.127788e+00 3.897644e-01 4.275480e-01 4.329698e-01 5.216334e-01 6.080842e-01 5.654112e-01 6.353698e-01 7.319050e-01 6.103221e-01 5.274042e-01 5.284045e-01 4.593357e-01 6.864938e-01
<GCONST> 1.336660e+02
<STATE> 4
<MEAN> 39
 -6.773880e+00 -2.991877e+00 -5.917661e-01 -5.375704e+00 -7.295456e+00 -1.815538e+00 -9.070568e+00 -3.809381e+00 -4.291472e+00 -2.960835e+00 -2.913758e+00 -4.407464e+00 5.205985e+01 7.803894e-04 1.042786e-03 -1.186647e-03 -2.231209e-03 -1.278733e-04 5.086674e-04 -4.604213e-04 -2.265546e-03 -1.313078e-03 -3.152672e-04 -9.525996e-04 -1.796811e-03 5.191382e-03 1.009169e-04 1.186429e-04 9.828676e-05 1.706968e-04 1.161104e-04 7.905974e-05 1.106995e-04 7.473191e-05 2.130609e-05 -2.658203e-05 2.171954e-05 -2.908908e-05 2.814133e-04
<VARIANCE> 39
 6.656408e+01 5.835409e+01 7.190160e+01 6.879092e+01 7.102370e+01 6.692833e+01 7.815089e+01 7.929446e+01 6.314392e+01 4.112098e+01 4.676405e+01 4.451734e+01 2.380227e+02 2.566054e+00 2.689119e+00 2.777471e+00 3.092725e+00 3.423522e+00 3.210265e+00 3.566421e+00 4.221819e+00 3.451841e+00 2.829621e+00 2.887943e+00 2.502554e+00 5.127788e+00 3.897644e-01 4.275480e-01 4.329698e-01 5.216334e-01 6.080842e-01 5.654112e-01 6.353698e-01 7.319050e-01 6.103221e-01 5.274042e-01 5.284045e-01 4.593357e-01 6.864938e-01
<GCONST> 1.336660e+02
<TRANSP> 5
 0.000000e+00 1.000000e+00 0.000000e+00 0.000000e+00 0.000000e+00
 0.000000e+00 6.000000e-01 4.000000e-01 0.000000e+00 0.000000e+00
 0.000000e+00 0.000000e+00 6.000000e-01 4.000000e-01 0.000000e+00
 0.000000e+00 0.000000e+00 0.000000e+00 7.000000e-01 3.000000e-01
 0.000000e+00 0.000000e+00 0.000000e+00 0.000000e+00 0.000000e+00
<ENDHMM>
~h aw
<BEGINHMM>
<NUMSTATES> 5
<STATE> 2
<MEAN> 39
 -6.773880e+00 -2.991877e+00 -5.917661e-01 -5.375704e+00 -7.295456e+00 -1.815538e+00 -9.070568e+00 -3.809381e+00 -4.291472e+00 -2.960835e+00 -2.913758e+00 -4.407464e+00 5.205985e+01 7.803894e-04 1.042786e-03 -1.186647e-03 -2.231209e-03 -1.278733e-04 5.086674e-04 -4.604213e-04 -2.265546e-03 -1.313078e-03 -3.152672e-04 -9.525996e-04 -1.796811e-03 5.191382e-03 1.009169e-04 1.186429e-04 9.828676e-05 1.706968e-04 1.161104e-04 7.905974e-05 1.106995e-04 7.473191e-05 2.130609e-05 -2.658203e-05 2.171954e-05 -2.908908e-05 2.814133e-04
<VARIANCE> 39
 6.656408e+01 5.835409e+01 7.190160e+01 6.879092e+01 7.102370e+01 6.692833e+01 7.815089e+01 7.929446e+01 6.314392e+01 4.112098e+01 4.676405e+01 4.451734e+01 2.380227e+02 2.566054e+00 2.689119e+00 2.777471e+00 3.092725e+00 3.423522e+00 3.210265e+00 3.566421e+00 4.221819e+00 3.451841e+00 2.829621e+00 2.887943e+00 2.502554e+00 5.127788e+00 3.897644e-01 4.275480e-01 4.329698e-01 5.216334e-01 6.080842e-01 5.654112e-01 6.353698e-01 7.319050e-01 6.103221e-01 5.274042e-01 5.284045e-01 4.593357e-01 6.864938e-01
<GCONST> 1.336660e+02
<STATE> 3
<MEAN> 39
 -6.773880e+00 -2.991877e+00 -5.917661e-01 -5.375704e+00 -7.295456e+00 -1.815538e+00 -9.070568e+00 -3.809381e+00 -4.291472e+00 -2.960835e+00 -2.913758e+00 -4.407464e+00 5.205985e+01 7.803894e-04 1.042786e-03 -1.186647e-03 -2.231209e-03 -1.278733e-04 5.086674e-04 -4.604213e-04 -2.265546e-03 -1.313078e-03 -3.152672e-04 -9.525996e-04 -1.796811e-03 5.191382e-03 1.009169e-04 1.186429e-04 9.828676e-05 1.706968e-04 1.161104e-04 7.905974e-05 1.106995e-04 7.473191e-05 2.130609e-05 -2.658203e-05 2.171954e-05 -2.908908e-05 2.814133e-04
<VARIANCE> 39
 6.656408e+01 5.835409e+01 7.190160e+01 6.879092e+01 7.102370e+01 6.692833e+01 7.815089e+01 7.929446e+01 6.314392e+01 4.112098e+01 4.676405e+01 4.451734e+01 2.380227e+02 2.566054e+00 2.689119e+00 2.777471e+00 3.092725e+00 3.423522e+00 3.210265e+00 3.566421e+00 4.221819e+00 3.451841e+00 2.829621e+00 2.887943e+00 2.502554e+00 5.127788e+00 3.897644e-01 4.275480e-01 4.329698e-01 5.216334e-01 6.080842e-01 5.654112e-01 6.353698e-01 7.319050e-01 6.103221e-01 5.274042e-01 5.284045e-01 4.593357e-01 6.864938e-01
<GCONST> 1.336660e+02
<STATE> 4
<MEAN> 39
 -6.773880e+00 -2.991877e+00 -5.917661e-01 -5.375704e+00 -7.295456e+00 -1.815538e+00 -9.070568e+00 -3.809381e+00 -4.291472e+00 -2.960835e+00 -2.913758e+00 -4.407464e+00 5.205985e+01 7.803894e-04 1.042786e-03 -1.186647e-03 -2.231209e-03 -1.278733e-04 5.086674e-04 -4.604213e-04 -2.265546e-03 -1.313078e-03 -3.152672e-04 -9.525996e-04 -1.796811e-03 5.191382e-03 1.009169e-04 1.186429e-04 9.828676e-05 1.706968e-04 1.161104e-04 7.905974e-05 1.106995e-04 7.473191e-05 2.130609e-05 -2.658203e-05 2.171954e-05 -2.908908e-05 2.814133e-04
<VARIANCE> 39
 6.656408e+01 5.835409e+01 7.190160e+01 6.879092e+01 7.102370e+01 6.692833e+01 7.815089e+01 7.929446e+01 6.314392e+01 4.112098e+01 4.676405e+01 4.451734e+01 2.380227e+02 2.566054e+00 2.689119e+00 2.777471e+00 3.092725e+00 3.423522e+00 3.210265e+00 3.566421e+00 4.221819e+00 3.451841e+00 2.829621e+00 2.887943e+00 2.502554e+00 5.127788e+00 3.897644e-01 4.275480e-01 4.329698e-01 5.216334e-01 6.080842e-01 5.654112e-01 6.353698e-01 7.319050e-01 6.103221e-01 5.274042e-01 5.284045e-01 4.593357e-01 6.864938e-01
<GCONST> 1.336660e+02
<TRANSP> 5
 0.000000e+00 1.000000e+00 0.000000e+00 0.000000e+00 0.000000e+00
 0.000000e+00 6.000000e-01 4.000000e-01 0.000000e+00 0.000000e+00
 0.000000e+00 0.000000e+00 6.000000e-01 4.000000e-01 0.000000e+00
 0.000000e+00 0.000000e+00 0.000000e+00 7.000000e-01 3.000000e-01
 0.000000e+00 0.000000e+00 0.000000e+00 0.000000e+00 0.000000e+00
<ENDHMM>
~h ng
<BEGINHMM>
<NUMSTATES> 5
<STATE> 2
<MEAN> 39
 -6.773880e+00 -2.991877e+00 -5.917661e-01 -5.375704e+00 -7.295456e+00 -1.815538e+00 -9.070568e+00 -3.809381e+00 -4.291472e+00 -2.960835e+00 -2.913758e+00 -4.407464e+00 5.205985e+01 7.803894e-04 1.042786e-03 -1.186647e-03 -2.231209e-03 -1.278733e-04 5.086674e-04 -4.604213e-04 -2.265546e-03 -1.313078e-03 -3.152672e-04 -9.525996e-04 -1.796811e-03 5.191382e-03 1.009169e-04 1.186429e-04 9.828676e-05 1.706968e-04 1.161104e-04 7.905974e-05 1.106995e-04 7.473191e-05 2.130609e-05 -2.658203e-05 2.171954e-05 -2.908908e-05 2.814133e-04
<VARIANCE> 39
 6.656408e+01 5.835409e+01 7.190160e+01 6.879092e+01 7.102370e+01 6.692833e+01 7.815089e+01 7.929446e+01 6.314392e+01 4.112098e+01 4.676405e+01 4.451734e+01 2.380227e+02 2.566054e+00 2.689119e+00 2.777471e+00 3.092725e+00 3.423522e+00 3.210265e+00 3.566421e+00 4.221819e+00 3.451841e+00 2.829621e+00 2.887943e+00 2.502554e+00 5.127788e+00 3.897644e-01 4.275480e-01 4.329698e-01 5.216334e-01 6.080842e-01 5.654112e-01 6.353698e-01 7.319050e-01 6.103221e-01 5.274042e-01 5.284045e-01 4.593357e-01 6.864938e-01
<GCONST> 1.336660e+02
<STATE> 3
<MEAN> 39
 -6.773880e+00 -2.991877e+00 -5.917661e-01 -5.375704e+00 -7.295456e+00 -1.815538e+00 -9.070568e+00 -3.809381e+00 -4.291472e+00 -2.960835e+00 -2.913758e+00 -4.407464e+00 5.205985e+01 7.803894e-04 1.042786e-03 -1.186647e-03 -2.231209e-03 -1.278733e-04 5.086674e-04 -4.604213e-04 -2.265546e-03 -1.313078e-03 -3.152672e-04 -9.525996e-04 -1.796811e-03 5.191382e-03 1.009169e-04 1.186429e-04 9.828676e-05 1.706968e-04 1.161104e-04 7.905974e-05 1.106995e-04 7.473191e-05 2.130609e-05 -2.658203e-05 2.171954e-05 -2.908908e-05 2.814133e-04
<VARIANCE> 39
 6.656408e+01 5.835409e+01 7.190160e+01 6.879092e+01 7.102370e+01 6.692833e+01 7.815089e+01 7.929446e+01 6.314392e+01 4.112098e+01 4.676405e+01 4.451734e+01 2.380227e+02 2.566054e+00 2.689119e+00 2.777471e+00 3.092725e+00 3.423522e+00 3.210265e+00 3.566421e+00 4.221819e+00 3.451841e+00 2.829621e+00 2.887943e+00 2.502554e+00 5.127788e+00 3.897644e-01 4.275480e-01 4.329698e-01 5.216334e-01 6.080842e-01 5.654112e-01 6.353698e-01 7.319050e-01 6.103221e-01 5.274042e-01 5.284045e-01 4.593357e-01 6.864938e-01
<GCONST> 1.336660e+02
<STATE> 4
<MEAN> 39
 -6.773880e+00 -2.991877e+00 -5.917661e-01 -5.375704e+00 -7.295456e+00 -1.815538e+00 -9.070568e+00 -3.809381e+00 -4.291472e+00 -2.960835e+00 -2.913758e+00 -4.407464e+00 5.205985e+01 7.803894e-04 1.042786e-03 -1.186647e-03 -2.231209e-03 -1.278733e-04 5.086674e-04 -4.604213e-04 -2.265546e-03 -1.313078e-03 -3.152672e-04 -9.525996e-04 -1.796811e-03 5.191382e-03 1.009169e-04 1.186429e-04 9.828676e-05 1.706968e-04 1.161104e-04 7.905974e-05 1.106995e-04 7.473191e-05 2.130609e-05 -2.658203e-05 2.171954e-05 -2.908908e-05 2.814133e-04
<VARIANCE> 39
 6.656408e+01 5.835409e+01 7.190160e+01 6.879092e+01 7.102370e+01 6.692833e+01 7.815089e+01 7.929446e+01 6.314392e+01 4.112098e+01 4.676405e+01 4.451734e+01 2.380227e+02 2.566054e+00 2.689119e+00 2.777471e+00 3.092725e+00 3.423522e+00 3.210265e+00 3.566421e+00 4.221819e+00 3.451841e+00 2.829621e+00 2.887943e+00 2.502554e+00 5.127788e+00 3.897644e-01 4.275480e-01 4.329698e-01 5.216334e-01 6.080842e-01 5.654112e-01 6.353698e-01 7.319050e-01 6.103221e-01 5.274042e-01 5.284045e-01 4.593357e-01 6.864938e-01
<GCONST> 1.336660e+02
<TRANSP> 5
 0.000000e+00 1.000000e+00 0.000000e+00 0.000000e+00 0.000000e+00
 0.000000e+00 6.000000e-01 4.000000e-01 0.000000e+00 0.000000e+00
 0.000000e+00 0.000000e+00 6.000000e-01 4.000000e-01 0.000000e+00
 0.000000e+00 0.000000e+00 0.000000e+00 7.000000e-01 3.000000e-01
 0.000000e+00 0.000000e+00 0.000000e+00 0.000000e+00 0.000000e+00
<ENDHMM>
~h t
<BEGINHMM>
<NUMSTATES> 5
<STATE> 2
<MEAN> 39
 -6.773880e+00 -2.991877e+00 -5.917661e-01 -5.375704e+00 -7.295456e+00 -1.815538e+00 -9.070568e+00 -3.809381e+00 -4.291472e+00 -2.960835e+00 -2.913758e+00 -4.407464e+00 5.205985e+01 7.803894e-04 1.042786e-03 -1.186647e-03 -2.231209e-03 -1.278733e-04 5.086674e-04 -4.604213e-04 -2.265546e-03 -1.313078e-03 -3.152672e-04 -9.525996e-04 -1.796811e-03 5.191382e-03 1.009169e-04 1.186429e-04 9.828676e-05 1.706968e-04 1.161104e-04 7.905974e-05 1.106995e-04 7.473191e-05 2.130609e-05 -2.658203e-05 2.171954e-05 -2.908908e-05 2.814133e-04
<VARIANCE> 39
 6.656408e+01 5.835409e+01 7.190160e+01 6.879092e+01 7.102370e+01 6.692833e+01 7.815089e+01 7.929446e+01 6.314392e+01 4.112098e+01 4.676405e+01 4.451734e+01 2.380227e+02 2.566054e+00 2.689119e+00 2.777471e+00 3.092725e+00 3.423522e+00 3.210265e+00 3.566421e+00 4.221819e+00 3.451841e+00 2.829621e+00 2.887943e+00 2.502554e+00 5.127788e+00 3.897644e-01 4.275480e-01 4.329698e-01 5.216334e-01 6.080842e-01 5.654112e-01 6.353698e-01 7.319050e-01 6.103221e-01 5.274042e-01 5.284045e-01 4.593357e-01 6.864938e-01
<GCONST> 1.336660e+02
<STATE> 3
<MEAN> 39
 -6.773880e+00 -2.991877e+00 -5.917661e-01 -5.375704e+00 -7.295456e+00 -1.815538e+00 -9.070568e+00 -3.809381e+00 -4.291472e+00 -2.960835e+00 -2.913758e+00 -4.407464e+00 5.205985e+01 7.803894e-04 1.042786e-03 -1.186647e-03 -2.231209e-03 -1.278733e-04 5.086674e-04 -4.604213e-04 -2.265546e-03 -1.313078e-03 -3.152672e-04 -9.525996e-04 -1.796811e-03 5.191382e-03 1.009169e-04 1.186429e-04 9.828676e-05 1.706968e-04 1.161104e-04 7.905974e-05 1.106995e-04 7.473191e-05 2.130609e-05 -2.658203e-05 2.171954e-05 -2.908908e-05 2.814133e-04
<VARIANCE> 39
 6.656408e+01 5.835409e+01 7.190160e+01 6.879092e+01 7.102370e+01 6.692833e+01 7.815089e+01 7.929446e+01 6.314392e+01 4.112098e+01 4.676405e+01 4.451734e+01 2.380227e+02 2.566054e+00 2.689119e+00 2.777471e+00 3.092725e+00 3.423522e+00 3.210265e+00 3.566421e+00 4.221819e+00 3.451841e+00 2.829621e+00 2.887943e+00 2.502554e+00 5.127788e+00 3.897644e-01 4.275480e-01 4.329698e-01 5.216334e-01 6.080842e-01 5.654112e-01 6.353698e-01 7.319050e-01 6.103221e-01 5.274042e-01 5.284045e-01 4.593357e-01 6.864938e-01
<GCONST> 1.336660e+02
<STATE> 4
<MEAN> 39
 -6.773880e+00 -2.991877e+00 -5.917661e-01 -5.375704e+00 -7.295456e+00 -1.815538e+00 -9.070568e+00 -3.809381e+00 -4.291472e+00 -2.960835e+00 -2.913758e+00 -4.407464e+00 5.205985e+01 7.803894e-04 1.042786e-03 -1.186647e-03 -2.231209e-03 -1.278733e-04 5.086674e-04 -4.604213e-04 -2.265546e-03 -1.313078e-03 -3.152672e-04 -9.525996e-04 -1.796811e-03 5.191382e-03 1.009169e-04 1.186429e-04 9.828676e-05 1.706968e-04 1.161104e-04 7.905974e-05 1.106995e-04 7.473191e-05 2.130609e-05 -2.658203e-05 2.171954e-05 -2.908908e-05 2.814133e-04
<VARIANCE> 39
 6.656408e+01 5.835409e+01 7.190160e+01 6.879092e+01 7.102370e+01 6.692833e+01 7.815089e+01 7.929446e+01 6.314392e+01 4.112098e+01 4.676405e+01 4.451734e+01 2.380227e+02 2.566054e+00 2.689119e+00 2.777471e+00 3.092725e+00 3.423522e+00 3.210265e+00 3.566421e+00 4.221819e+00 3.451841e+00 2.829621e+00 2.887943e+00 2.502554e+00 5.127788e+00 3.897644e-01 4.275480e-01 4.329698e-01 5.216334e-01 6.080842e-01 5.654112e-01 6.353698e-01 7.319050e-01 6.103221e-01 5.274042e-01 5.284045e-01 4.593357e-01 6.864938e-01
<GCONST> 1.336660e+02
<TRANSP> 5
 0.000000e+00 1.000000e+00 0.000000e+00 0.000000e+00 0.000000e+00
 0.000000e+00 6.000000e-01 4.000000e-01 0.000000e+00 0.000000e+00
 0.000000e+00 0.000000e+00 6.000000e-01 4.000000e-01 0.000000e+00
 0.000000e+00 0.000000e+00 0.000000e+00 7.000000e-01 3.000000e-01
 0.000000e+00 0.000000e+00 0.000000e+00 0.000000e+00 0.000000e+00
<ENDHMM>
~h k
<BEGINHMM>
<NUMSTATES> 5
<STATE> 2
<MEAN> 39
 -6.773880e+00 -2.991877e+00 -5.917661e-01 -5.375704e+00 -7.295456e+00 -1.815538e+00 -9.070568e+00 -3.809381e+00 -4.291472e+00 -2.960835e+00 -2.913758e+00 -4.407464e+00 5.205985e+01 7.803894e-04 1.042786e-03 -1.186647e-03 -2.231209e-03 -1.278733e-04 5.086674e-04 -4.604213e-04 -2.265546e-03 -1.313078e-03 -3.152672e-04 -9.525996e-04 -1.796811e-03 5.191382e-03 1.009169e-04 1.186429e-04 9.828676e-05 1.706968e-04 1.161104e-04 7.905974e-05 1.106995e-04 7.473191e-05 2.130609e-05 -2.658203e-05 2.171954e-05 -2.908908e-05 2.814133e-04
<VARIANCE> 39
 6.656408e+01 5.835409e+01 7.190160e+01 6.879092e+01 7.102370e+01 6.692833e+01 7.815089e+01 7.929446e+01 6.314392e+01 4.112098e+01 4.676405e+01 4.451734e+01 2.380227e+02 2.566054e+00 2.689119e+00 2.777471e+00 3.092725e+00 3.423522e+00 3.210265e+00 3.566421e+00 4.221819e+00 3.451841e+00 2.829621e+00 2.887943e+00 2.502554e+00 5.127788e+00 3.897644e-01 4.275480e-01 4.329698e-01 5.216334e-01 6.080842e-01 5.654112e-01 6.353698e-01 7.319050e-01 6.103221e-01 5.274042e-01 5.284045e-01 4.593357e-01 6.864938e-01
<GCONST> 1.336660e+02
<STATE> 3
<MEAN> 39
 -6.773880e+00 -2.991877e+00 -5.917661e-01 -5.375704e+00 -7.295456e+00 -1.815538e+00 -9.070568e+00 -3.809381e+00 -4.291472e+00 -2.960835e+00 -2.913758e+00 -4.407464e+00 5.205985e+01 7.803894e-04 1.042786e-03 -1.186647e-03 -2.231209e-03 -1.278733e-04 5.086674e-04 -4.604213e-04 -2.265546e-03 -1.313078e-03 -3.152672e-04 -9.525996e-04 -1.796811e-03 5.191382e-03 1.009169e-04 1.186429e-04 9.828676e-05 1.706968e-04 1.161104e-04 7.905974e-05 1.106995e-04 7.473191e-05 2.130609e-05 -2.658203e-05 2.171954e-05 -2.908908e-05 2.814133e-04
<VARIANCE> 39
 6.656408e+01 5.835409e+01 7.190160e+01 6.879092e+01 7.102370e+01 6.692833e+01 7.815089e+01 7.929446e+01 6.314392e+01 4.112098e+01 4.676405e+01 4.451734e+01 2.380227e+02 2.566054e+00 2.689119e+00 2.777471e+00 3.092725e+00 3.423522e+00 3.210265e+00 3.566421e+00 4.221819e+00 3.451841e+00 2.829621e+00 2.887943e+00 2.502554e+00 5.127788e+00 3.897644e-01 4.275480e-01 4.329698e-01 5.216334e-01 6.080842e-01 5.654112e-01 6.353698e-01 7.319050e-01 6.103221e-01 5.274042e-01 5.284045e-01 4.593357e-01 6.864938e-01
<GCONST> 1.336660e+02
<STATE> 4
<MEAN> 39
 -6.773880e+00 -2.991877e+00 -5.917661e-01 -5.375704e+00 -7.295456e+00 -1.815538e+00 -9.070568e+00 -3.809381e+00 -4.291472e+00 -2.960835e+00 -2.913758e+00 -4.407464e+00 5.205985e+01 7.803894e-04 1.042786e-03 -1.186647e-03 -2.231209e-03 -1.278733e-04 5.086674e-04 -4.604213e-04 -2.265546e-03 -1.313078e-03 -3.152672e-04 -9.525996e-04 -1.796811e-03 5.191382e-03 1.009169e-04 1.186429e-04 9.828676e-05 1.706968e-04 1.161104e-04 7.905974e-05 1.106995e-04 7.473191e-05 2.130609e-05 -2.658203e-05 2.171954e-05 -2.908908e-05 2.814133e-04
<VARIANCE> 39
 6.656408e+01 5.835409e+01 7.190160e+01 6.879092e+01 7.102370e+01 6.692833e+01 7.815089e+01 7.929446e+01 6.314392e+01 4.112098e+01 4.676405e+01 4.451734e+01 2.380227e+02 2.566054e+00 2.689119e+00 2.777471e+00 3.092725e+00 3.423522e+00 3.210265e+00 3.566421e+00 4.221819e+00 3.451841e+00 2.829621e+00 2.887943e+00 2.502554e+00 5.127788e+00 3.897644e-01 4.275480e-01 4.329698e-01 5.216334e-01 6.080842e-01 5.654112e-01 6.353698e-01 7.319050e-01 6.103221e-01 5.274042e-01 5.284045e-01 4.593357e-01 6.864938e-01
<GCONST> 1.336660e+02
<TRANSP> 5
 0.000000e+00 1.000000e+00 0.000000e+00 0.000000e+00 0.000000e+00
 0.000000e+00 6.000000e-01 4.000000e-01 0.000000e+00 0.000000e+00
 0.000000e+00 0.000000e+00 6.000000e-01 4.000000e-01 0.000000e+00
 0.000000e+00 0.000000e+00 0.000000e+00 7.000000e-01 3.000000e-01
 0.000000e+00 0.000000e+00 0.000000e+00 0.000000e+00 0.000000e+00
<ENDHMM>
~h ch
<BEGINHMM>
<NUMSTATES> 5
<STATE> 2
<MEAN> 39
 -6.773880e+00 -2.991877e+00 -5.917661e-01 -5.375704e+00 -7.295456e+00 -1.815538e+00 -9.070568e+00 -3.809381e+00 -4.291472e+00 -2.960835e+00 -2.913758e+00 -4.407464e+00 5.205985e+01 7.803894e-04 1.042786e-03 -1.186647e-03 -2.231209e-03 -1.278733e-04 5.086674e-04 -4.604213e-04 -2.265546e-03 -1.313078e-03 -3.152672e-04 -9.525996e-04 -1.796811e-03 5.191382e-03 1.009169e-04 1.186429e-04 9.828676e-05 1.706968e-04 1.161104e-04 7.905974e-05 1.106995e-04 7.473191e-05 2.130609e-05 -2.658203e-05 2.171954e-05 -2.908908e-05 2.814133e-04
<VARIANCE> 39
 6.656408e+01 5.835409e+01 7.190160e+01 6.879092e+01 7.102370e+01 6.692833e+01 7.815089e+01 7.929446e+01 6.314392e+01 4.112098e+01 4.676405e+01 4.451734e+01 2.380227e+02 2.566054e+00 2.689119e+00 2.777471e+00 3.092725e+00 3.423522e+00 3.210265e+00 3.566421e+00 4.221819e+00 3.451841e+00 2.829621e+00 2.887943e+00 2.502554e+00 5.127788e+00 3.897644e-01 4.275480e-01 4.329698e-01 5.216334e-01 6.080842e-01 5.654112e-01 6.353698e-01 7.319050e-01 6.103221e-01 5.274042e-01 5.284045e-01 4.593357e-01 6.864938e-01
<GCONST> 1.336660e+02
<STATE> 3
<MEAN> 39
 -6.773880e+00 -2.991877e+00 -5.917661e-01 -5.375704e+00 -7.295456e+00 -1.815538e+00 -9.070568e+00 -3.809381e+00 -4.291472e+00 -2.960835e+00 -2.913758e+00 -4.407464e+00 5.205985e+01 7.803894e-04 1.042786e-03 -1.186647e-03 -2.231209e-03 -1.278733e-04 5.086674e-04 -4.604213e-04 -2.265546e-03 -1.313078e-03 -3.152672e-04 -9.525996e-04 -1.796811e-03 5.191382e-03 1.009169e-04 1.186429e-04 9.828676e-05 1.706968e-04 1.161104e-04 7.905974e-05 1.106995e-04 7.473191e-05 2.130609e-05 -2.658203e-05 2.171954e-05 -2.908908e-05 2.814133e-04
<VARIANCE> 39
 6.656408e+01 5.835409e+01 7.190160e+01 6.879092e+01 7.102370e+01 6.692833e+01 7.815089e+01 7.929446e+01 6.314392e+01 4.112098e+01 4.676405e+01 4.451734e+01 2.380227e+02 2.566054e+00 2.689119e+00 2.777471e+00 3.092725e+00 3.423522e+00 3.210265e+00 3.566421e+00 4.221819e+00 3.451841e+00 2.829621e+00 2.887943e+00 2.502554e+00 5.127788e+00 3.897644e-01 4.275480e-01 4.329698e-01 5.216334e-01 6.080842e-01 5.654112e-01 6.353698e-01 7.319050e-01 6.103221e-01 5.274042e-01 5.284045e-01 4.593357e-01 6.864938e-01
<GCONST> 1.336660e+02
<STATE> 4
<MEAN> 39
 -6.773880e+00 -2.991877e+00 -5.917661e-01 -5.375704e+00 -7.295456e+00 -1.815538e+00 -9.070568e+00 -3.809381e+00 -4.291472e+00 -2.960835e+00 -2.913758e+00 -4.407464e+00 5.205985e+01 7.803894e-04 1.042786e-03 -1.186647e-03 -2.231209e-03 -1.278733e-04 5.086674e-04 -4.604213e-04 -2.265546e-03 -1.313078e-03 -3.152672e-04 -9.525996e-04 -1.796811e-03 5.191382e-03 1.009169e-04 1.186429e-04 9.828676e-05 1.706968e-04 1.161104e-04 7.905974e-05 1.106995e-04 7.473191e-05 2.130609e-05 -2.658203e-05 2.171954e-05 -2.908908e-05 2.814133e-04
<VARIANCE> 39
 6.656408e+01 5.835409e+01 7.190160e+01 6.879092e+01 7.102370e+01 6.692833e+01 7.815089e+01 7.929446e+01 6.314392e+01 4.112098e+01 4.676405e+01 4.451734e+01 2.380227e+02 2.566054e+00 2.689119e+00 2.777471e+00 3.092725e+00 3.423522e+00 3.210265e+00 3.566421e+00 4.221819e+00 3.451841e+00 2.829621e+00 2.887943e+00 2.502554e+00 5.127788e+00 3.897644e-01 4.275480e-01 4.329698e-01 5.216334e-01 6.080842e-01 5.654112e-01 6.353698e-01 7.319050e-01 6.103221e-01 5.274042e-01 5.284045e-01 4.593357e-01 6.864938e-01
<GCONST> 1.336660e+02
<TRANSP> 5
 0.000000e+00 1.000000e+00 0.000000e+00 0.000000e+00 0.000000e+00
 0.000000e+00 6.000000e-01 4.000000e-01 0.000000e+00 0.000000e+00
 0.000000e+00 0.000000e+00 6.000000e-01 4.000000e-01 0.000000e+00
 0.000000e+00 0.000000e+00 0.000000e+00 7.000000e-01 3.000000e-01
 0.000000e+00 0.000000e+00 0.000000e+00 0.000000e+00 0.000000e+00
<ENDHMM>
~h iy
<BEGINHMM>
<NUMSTATES> 5
<STATE> 2
<MEAN> 39
 -6.773880e+00 -2.991877e+00 -5.917661e-01 -5.375704e+00 -7.295456e+00 -1.815538e+00 -9.070568e+00 -3.809381e+00 -4.291472e+00 -2.960835e+00 -2.913758e+00 -4.407464e+00 5.205985e+01 7.803894e-04 1.042786e-03 -1.186647e-03 -2.231209e-03 -1.278733e-04 5.086674e-04 -4.604213e-04 -2.265546e-03 -1.313078e-03 -3.152672e-04 -9.525996e-04 -1.796811e-03 5.191382e-03 1.009169e-04 1.186429e-04 9.828676e-05 1.706968e-04 1.161104e-04 7.905974e-05 1.106995e-04 7.473191e-05 2.130609e-05 -2.658203e-05 2.171954e-05 -2.908908e-05 2.814133e-04
<VARIANCE> 39
 6.656408e+01 5.835409e+01 7.190160e+01 6.879092e+01 7.102370e+01 6.692833e+01 7.815089e+01 7.929446e+01 6.314392e+01 4.112098e+01 4.676405e+01 4.451734e+01 2.380227e+02 2.566054e+00 2.689119e+00 2.777471e+00 3.092725e+00 3.423522e+00 3.210265e+00 3.566421e+00 4.221819e+00 3.451841e+00 2.829621e+00 2.887943e+00 2.502554e+00 5.127788e+00 3.897644e-01 4.275480e-01 4.329698e-01 5.216334e-01 6.080842e-01 5.654112e-01 6.353698e-01 7.319050e-01 6.103221e-01 5.274042e-01 5.284045e-01 4.593357e-01 6.864938e-01
<GCONST> 1.336660e+02
<STATE> 3
<MEAN> 39
 -6.773880e+00 -2.991877e+00 -5.917661e-01 -5.375704e+00 -7.295456e+00 -1.815538e+00 -9.070568e+00 -3.809381e+00 -4.291472e+00 -2.960835e+00 -2.913758e+00 -4.407464e+00 5.205985e+01 7.803894e-04 1.042786e-03 -1.186647e-03 -2.231209e-03 -1.278733e-04 5.086674e-04 -4.604213e-04 -2.265546e-03 -1.313078e-03 -3.152672e-04 -9.525996e-04 -1.796811e-03 5.191382e-03 1.009169e-04 1.186429e-04 9.828676e-05 1.706968e-04 1.161104e-04 7.905974e-05 1.106995e-04 7.473191e-05 2.130609e-05 -2.658203e-05 2.171954e-05 -2.908908e-05 2.814133e-04
<VARIANCE> 39
 6.656408e+01 5.835409e+01 7.190160e+01 6.879092e+01 7.102370e+01 6.692833e+01 7.815089e+01 7.929446e+01 6.314392e+01 4.112098e+01 4.676405e+01 4.451734e+01 2.380227e+02 2.566054e+00 2.689119e+00 2.777471e+00 3.092725e+00 3.423522e+00 3.210265e+00 3.566421e+00 4.221819e+00 3.451841e+00 2.829621e+00 2.887943e+00 2.502554e+00 5.127788e+00 3.897644e-01 4.275480e-01 4.329698e-01 5.216334e-01 6.080842e-01 5.654112e-01 6.353698e-01 7.319050e-01 6.103221e-01 5.274042e-01 5.284045e-01 4.593357e-01 6.864938e-01
<GCONST> 1.336660e+02
<STATE> 4
<MEAN> 39
 -6.773880e+00 -2.991877e+00 -5.917661e-01 -5.375704e+00 -7.295456e+00 -1.815538e+00 -9.070568e+00 -3.809381e+00 -4.291472e+00 -2.960835e+00 -2.913758e+00 -4.407464e+00 5.205985e+01 7.803894e-04 1.042786e-03 -1.186647e-03 -2.231209e-03 -1.278733e-04 5.086674e-04 -4.604213e-04 -2.265546e-03 -1.313078e-03 -3.152672e-04 -9.525996e-04 -1.796811e-03 5.191382e-03 1.009169e-04 1.186429e-04 9.828676e-05 1.706968e-04 1.161104e-04 7.905974e-05 1.106995e-04 7.473191e-05 2.130609e-05 -2.658203e-05 2.171954e-05 -2.908908e-05 2.814133e-04
<VARIANCE> 39
 6.656408e+01 5.835409e+01 7.190160e+01 6.879092e+01 7.102370e+01 6.692833e+01 7.815089e+01 7.929446e+01 6.314392e+01 4.112098e+01 4.676405e+01 4.451734e+01 2.380227e+02 2.566054e+00 2.689119e+00 2.777471e+00 3.092725e+00 3.423522e+00 3.210265e+00 3.566421e+00 4.221819e+00 3.451841e+00 2.829621e+00 2.887943e+00 2.502554e+00 5.127788e+00 3.897644e-01 4.275480e-01 4.329698e-01 5.216334e-01 6.080842e-01 5.654112e-01 6.353698e-01 7.319050e-01 6.103221e-01 5.274042e-01 5.284045e-01 4.593357e-01 6.864938e-01
<GCONST> 1.336660e+02
<TRANSP> 5
 0.000000e+00 1.000000e+00 0.000000e+00 0.000000e+00 0.000000e+00
 0.000000e+00 6.000000e-01 4.000000e-01 0.000000e+00 0.000000e+00
 0.000000e+00 0.000000e+00 6.000000e-01 4.000000e-01 0.000000e+00
 0.000000e+00 0.000000e+00 0.000000e+00 7.000000e-01 3.000000e-01
 0.000000e+00 0.000000e+00 0.000000e+00 0.000000e+00 0.000000e+00
<ENDHMM>
~h v
<BEGINHMM>
<NUMSTATES> 5
<STATE> 2
<MEAN> 39
 -6.773880e+00 -2.991877e+00 -5.917661e-01 -5.375704e+00 -7.295456e+00 -1.815538e+00 -9.070568e+00 -3.809381e+00 -4.291472e+00 -2.960835e+00 -2.913758e+00 -4.407464e+00 5.205985e+01 7.803894e-04 1.042786e-03 -1.186647e-03 -2.231209e-03 -1.278733e-04 5.086674e-04 -4.604213e-04 -2.265546e-03 -1.313078e-03 -3.152672e-04 -9.525996e-04 -1.796811e-03 5.191382e-03 1.009169e-04 1.186429e-04 9.828676e-05 1.706968e-04 1.161104e-04 7.905974e-05 1.106995e-04 7.473191e-05 2.130609e-05 -2.658203e-05 2.171954e-05 -2.908908e-05 2.814133e-04
<VARIANCE> 39
 6.656408e+01 5.835409e+01 7.190160e+01 6.879092e+01 7.102370e+01 6.692833e+01 7.815089e+01 7.929446e+01 6.314392e+01 4.112098e+01 4.676405e+01 4.451734e+01 2.380227e+02 2.566054e+00 2.689119e+00 2.777471e+00 3.092725e+00 3.423522e+00 3.210265e+00 3.566421e+00 4.221819e+00 3.451841e+00 2.829621e+00 2.887943e+00 2.502554e+00 5.127788e+00 3.897644e-01 4.275480e-01 4.329698e-01 5.216334e-01 6.080842e-01 5.654112e-01 6.353698e-01 7.319050e-01 6.103221e-01 5.274042e-01 5.284045e-01 4.593357e-01 6.864938e-01
<GCONST> 1.336660e+02
<STATE> 3
<MEAN> 39
 -6.773880e+00 -2.991877e+00 -5.917661e-01 -5.375704e+00 -7.295456e+00 -1.815538e+00 -9.070568e+00 -3.809381e+00 -4.291472e+00 -2.960835e+00 -2.913758e+00 -4.407464e+00 5.205985e+01 7.803894e-04 1.042786e-03 -1.186647e-03 -2.231209e-03 -1.278733e-04 5.086674e-04 -4.604213e-04 -2.265546e-03 -1.313078e-03 -3.152672e-04 -9.525996e-04 -1.796811e-03 5.191382e-03 1.009169e-04 1.186429e-04 9.828676e-05 1.706968e-04 1.161104e-04 7.905974e-05 1.106995e-04 7.473191e-05 2.130609e-05 -2.658203e-05 2.171954e-05 -2.908908e-05 2.814133e-04
<VARIANCE> 39
 6.656408e+01 5.835409e+01 7.190160e+01 6.879092e+01 7.102370e+01 6.692833e+01 7.815089e+01 7.929446e+01 6.314392e+01 4.112098e+01 4.676405e+01 4.451734e+01 2.380227e+02 2.566054e+00 2.689119e+00 2.777471e+00 3.092725e+00 3.423522e+00 3.210265e+00 3.566421e+00 4.221819e+00 3.451841e+00 2.829621e+00 2.887943e+00 2.502554e+00 5.127788e+00 3.897644e-01 4.275480e-01 4.329698e-01 5.216334e-01 6.080842e-01 5.654112e-01 6.353698e-01 7.319050e-01 6.103221e-01 5.274042e-01 5.284045e-01 4.593357e-01 6.864938e-01
<GCONST> 1.336660e+02
<STATE> 4
<MEAN> 39
 -6.773880e+00 -2.991877e+00 -5.917661e-01 -5.375704e+00 -7.295456e+00 -1.815538e+00 -9.070568e+00 -3.809381e+00 -4.291472e+00 -2.960835e+00 -2.913758e+00 -4.407464e+00 5.205985e+01 7.803894e-04 1.042786e-03 -1.186647e-03 -2.231209e-03 -1.278733e-04 5.086674e-04 -4.604213e-04 -2.265546e-03 -1.313078e-03 -3.152672e-04 -9.525996e-04 -1.796811e-03 5.191382e-03 1.009169e-04 1.186429e-04 9.828676e-05 1.706968e-04 1.161104e-04 7.905974e-05 1.106995e-04 7.473191e-05 2.130609e-05 -2.658203e-05 2.171954e-05 -2.908908e-05 2.814133e-04
<VARIANCE> 39
 6.656408e+01 5.835409e+01 7.190160e+01 6.879092e+01 7.102370e+01 6.692833e+01 7.815089e+01 7.929446e+01 6.314392e+01 4.112098e+01 4.676405e+01 4.451734e+01 2.380227e+02 2.566054e+00 2.689119e+00 2.777471e+00 3.092725e+00 3.423522e+00 3.210265e+00 3.566421e+00 4.221819e+00 3.451841e+00 2.829621e+00 2.887943e+00 2.502554e+00 5.127788e+00 3.897644e-01 4.275480e-01 4.329698e-01 5.216334e-01 6.080842e-01 5.654112e-01 6.353698e-01 7.319050e-01 6.103221e-01 5.274042e-01 5.284045e-01 4.593357e-01 6.864938e-01
<GCONST> 1.336660e+02
<TRANSP> 5
 0.000000e+00 1.000000e+00 0.000000e+00 0.000000e+00 0.000000e+00
 0.000000e+00 6.000000e-01 4.000000e-01 0.000000e+00 0.000000e+00
 0.000000e+00 0.000000e+00 6.000000e-01 4.000000e-01 0.000000e+00
 0.000000e+00 0.000000e+00 0.000000e+00 7.000000e-01 3.000000e-01
 0.000000e+00 0.000000e+00 0.000000e+00 0.000000e+00 0.000000e+00
<ENDHMM>
~h w
<BEGINHMM>
<NUMSTATES> 5
<STATE> 2
<MEAN> 39
 -6.773880e+00 -2.991877e+00 -5.917661e-01 -5.375704e+00 -7.295456e+00 -1.815538e+00 -9.070568e+00 -3.809381e+00 -4.291472e+00 -2.960835e+00 -2.913758e+00 -4.407464e+00 5.205985e+01 7.803894e-04 1.042786e-03 -1.186647e-03 -2.231209e-03 -1.278733e-04 5.086674e-04 -4.604213e-04 -2.265546e-03 -1.313078e-03 -3.152672e-04 -9.525996e-04 -1.796811e-03 5.191382e-03 1.009169e-04 1.186429e-04 9.828676e-05 1.706968e-04 1.161104e-04 7.905974e-05 1.106995e-04 7.473191e-05 2.130609e-05 -2.658203e-05 2.171954e-05 -2.908908e-05 2.814133e-04
<VARIANCE> 39
 6.656408e+01 5.835409e+01 7.190160e+01 6.879092e+01 7.102370e+01 6.692833e+01 7.815089e+01 7.929446e+01 6.314392e+01 4.112098e+01 4.676405e+01 4.451734e+01 2.380227e+02 2.566054e+00 2.689119e+00 2.777471e+00 3.092725e+00 3.423522e+00 3.210265e+00 3.566421e+00 4.221819e+00 3.451841e+00 2.829621e+00 2.887943e+00 2.502554e+00 5.127788e+00 3.897644e-01 4.275480e-01 4.329698e-01 5.216334e-01 6.080842e-01 5.654112e-01 6.353698e-01 7.319050e-01 6.103221e-01 5.274042e-01 5.284045e-01 4.593357e-01 6.864938e-01
<GCONST> 1.336660e+02
<STATE> 3
<MEAN> 39
 -6.773880e+00 -2.991877e+00 -5.917661e-01 -5.375704e+00 -7.295456e+00 -1.815538e+00 -9.070568e+00 -3.809381e+00 -4.291472e+00 -2.960835e+00 -2.913758e+00 -4.407464e+00 5.205985e+01 7.803894e-04 1.042786e-03 -1.186647e-03 -2.231209e-03 -1.278733e-04 5.086674e-04 -4.604213e-04 -2.265546e-03 -1.313078e-03 -3.152672e-04 -9.525996e-04 -1.796811e-03 5.191382e-03 1.009169e-04 1.186429e-04 9.828676e-05 1.706968e-04 1.161104e-04 7.905974e-05 1.106995e-04 7.473191e-05 2.130609e-05 -2.658203e-05 2.171954e-05 -2.908908e-05 2.814133e-04
<VARIANCE> 39
 6.656408e+01 5.835409e+01 7.190160e+01 6.879092e+01 7.102370e+01 6.692833e+01 7.815089e+01 7.929446e+01 6.314392e+01 4.112098e+01 4.676405e+01 4.451734e+01 2.380227e+02 2.566054e+00 2.689119e+00 2.777471e+00 3.092725e+00 3.423522e+00 3.210265e+00 3.566421e+00 4.221819e+00 3.451841e+00 2.829621e+00 2.887943e+00 2.502554e+00 5.127788e+00 3.897644e-01 4.275480e-01 4.329698e-01 5.216334e-01 6.080842e-01 5.654112e-01 6.353698e-01 7.319050e-01 6.103221e-01 5.274042e-01 5.284045e-01 4.593357e-01 6.864938e-01
<GCONST> 1.336660e+02
<STATE> 4
<MEAN> 39
 -6.773880e+00 -2.991877e+00 -5.917661e-01 -5.375704e+00 -7.295456e+00 -1.815538e+00 -9.070568e+00 -3.809381e+00 -4.291472e+00 -2.960835e+00 -2.913758e+00 -4.407464e+00 5.205985e+01 7.803894e-04 1.042786e-03 -1.186647e-03 -2.231209e-03 -1.278733e-04 5.086674e-04 -4.604213e-04 -2.265546e-03 -1.313078e-03 -3.152672e-04 -9.525996e-04 -1.796811e-03 5.191382e-03 1.009169e-04 1.186429e-04 9.828676e-05 1.706968e-04 1.161104e-04 7.905974e-05 1.106995e-04 7.473191e-05 2.130609e-05 -2.658203e-05 2.171954e-05 -2.908908e-05 2.814133e-04
<VARIANCE> 39
 6.656408e+01 5.835409e+01 7.190160e+01 6.879092e+01 7.102370e+01 6.692833e+01 7.815089e+01 7.929446e+01 6.314392e+01 4.112098e+01 4.676405e+01 4.451734e+01 2.380227e+02 2.566054e+00 2.689119e+00 2.777471e+00 3.092725e+00 3.423522e+00 3.210265e+00 3.566421e+00 4.221819e+00 3.451841e+00 2.829621e+00 2.887943e+00 2.502554e+00 5.127788e+00 3.897644e-01 4.275480e-01 4.329698e-01 5.216334e-01 6.080842e-01 5.654112e-01 6.353698e-01 7.319050e-01 6.103221e-01 5.274042e-01 5.284045e-01 4.593357e-01 6.864938e-01
<GCONST> 1.336660e+02
<TRANSP> 5
 0.000000e+00 1.000000e+00 0.000000e+00 0.000000e+00 0.000000e+00
 0.000000e+00 6.000000e-01 4.000000e-01 0.000000e+00 0.000000e+00
 0.000000e+00 0.000000e+00 6.000000e-01 4.000000e-01 0.000000e+00
 0.000000e+00 0.000000e+00 0.000000e+00 7.000000e-01 3.000000e-01
 0.000000e+00 0.000000e+00 0.000000e+00 0.000000e+00 0.000000e+00
<ENDHMM>
~h y
<BEGINHMM>
<NUMSTATES> 5
<STATE> 2
<MEAN> 39
 -6.773880e+00 -2.991877e+00 -5.917661e-01 -5.375704e+00 -7.295456e+00 -1.815538e+00 -9.070568e+00 -3.809381e+00 -4.291472e+00 -2.960835e+00 -2.913758e+00 -4.407464e+00 5.205985e+01 7.803894e-04 1.042786e-03 -1.186647e-03 -2.231209e-03 -1.278733e-04 5.086674e-04 -4.604213e-04 -2.265546e-03 -1.313078e-03 -3.152672e-04 -9.525996e-04 -1.796811e-03 5.191382e-03 1.009169e-04 1.186429e-04 9.828676e-05 1.706968e-04 1.161104e-04 7.905974e-05 1.106995e-04 7.473191e-05 2.130609e-05 -2.658203e-05 2.171954e-05 -2.908908e-05 2.814133e-04
<VARIANCE> 39
 6.656408e+01 5.835409e+01 7.190160e+01 6.879092e+01 7.102370e+01 6.692833e+01 7.815089e+01 7.929446e+01 6.314392e+01 4.112098e+01 4.676405e+01 4.451734e+01 2.380227e+02 2.566054e+00 2.689119e+00 2.777471e+00 3.092725e+00 3.423522e+00 3.210265e+00 3.566421e+00 4.221819e+00 3.451841e+00 2.829621e+00 2.887943e+00 2.502554e+00 5.127788e+00 3.897644e-01 4.275480e-01 4.329698e-01 5.216334e-01 6.080842e-01 5.654112e-01 6.353698e-01 7.319050e-01 6.103221e-01 5.274042e-01 5.284045e-01 4.593357e-01 6.864938e-01
<GCONST> 1.336660e+02
<STATE> 3
<MEAN> 39
 -6.773880e+00 -2.991877e+00 -5.917661e-01 -5.375704e+00 -7.295456e+00 -1.815538e+00 -9.070568e+00 -3.809381e+00 -4.291472e+00 -2.960835e+00 -2.913758e+00 -4.407464e+00 5.205985e+01 7.803894e-04 1.042786e-03 -1.186647e-03 -2.231209e-03 -1.278733e-04 5.086674e-04 -4.604213e-04 -2.265546e-03 -1.313078e-03 -3.152672e-04 -9.525996e-04 -1.796811e-03 5.191382e-03 1.009169e-04 1.186429e-04 9.828676e-05 1.706968e-04 1.161104e-04 7.905974e-05 1.106995e-04 7.473191e-05 2.130609e-05 -2.658203e-05 2.171954e-05 -2.908908e-05 2.814133e-04
<VARIANCE> 39
 6.656408e+01 5.835409e+01 7.190160e+01 6.879092e+01 7.102370e+01 6.692833e+01 7.815089e+01 7.929446e+01 6.314392e+01 4.112098e+01 4.676405e+01 4.451734e+01 2.380227e+02 2.566054e+00 2.689119e+00 2.777471e+00 3.092725e+00 3.423522e+00 3.210265e+00 3.566421e+00 4.221819e+00 3.451841e+00 2.829621e+00 2.887943e+00 2.502554e+00 5.127788e+00 3.897644e-01 4.275480e-01 4.329698e-01 5.216334e-01 6.080842e-01 5.654112e-01 6.353698e-01 7.319050e-01 6.103221e-01 5.274042e-01 5.284045e-01 4.593357e-01 6.864938e-01
<GCONST> 1.336660e+02
<STATE> 4
<MEAN> 39
 -6.773880e+00 -2.991877e+00 -5.917661e-01 -5.375704e+00 -7.295456e+00 -1.815538e+00 -9.070568e+00 -3.809381e+00 -4.291472e+00 -2.960835e+00 -2.913758e+00 -4.407464e+00 5.205985e+01 7.803894e-04 1.042786e-03 -1.186647e-03 -2.231209e-03 -1.278733e-04 5.086674e-04 -4.604213e-04 -2.265546e-03 -1.313078e-03 -3.152672e-04 -9.525996e-04 -1.796811e-03 5.191382e-03 1.009169e-04 1.186429e-04 9.828676e-05 1.706968e-04 1.161104e-04 7.905974e-05 1.106995e-04 7.473191e-05 2.130609e-05 -2.658203e-05 2.171954e-05 -2.908908e-05 2.814133e-04
<VARIANCE> 39
 6.656408e+01 5.835409e+01 7.190160e+01 6.879092e+01 7.102370e+01 6.692833e+01 7.815089e+01 7.929446e+01 6.314392e+01 4.112098e+01 4.676405e+01 4.451734e+01 2.380227e+02 2.566054e+00 2.689119e+00 2.777471e+00 3.092725e+00 3.423522e+00 3.210265e+00 3.566421e+00 4.221819e+00 3.451841e+00 2.829621e+00 2.887943e+00 2.502554e+00 5.127788e+00 3.897644e-01 4.275480e-01 4.329698e-01 5.216334e-01 6.080842e-01 5.654112e-01 6.353698e-01 7.319050e-01 6.103221e-01 5.274042e-01 5.284045e-01 4.593357e-01 6.864938e-01
<GCONST> 1.336660e+02
<TRANSP> 5
 0.000000e+00 1.000000e+00 0.000000e+00 0.000000e+00 0.000000e+00
 0.000000e+00 6.000000e-01 4.000000e-01 0.000000e+00 0.000000e+00
 0.000000e+00 0.000000e+00 6.000000e-01 4.000000e-01 0.000000e+00
 0.000000e+00 0.000000e+00 0.000000e+00 7.000000e-01 3.000000e-01
 0.000000e+00 0.000000e+00 0.000000e+00 0.000000e+00 0.000000e+00
<ENDHMM>
~h uw
<BEGINHMM>
<NUMSTATES> 5
<STATE> 2
<MEAN> 39
 -6.773880e+00 -2.991877e+00 -5.917661e-01 -5.375704e+00 -7.295456e+00 -1.815538e+00 -9.070568e+00 -3.809381e+00 -4.291472e+00 -2.960835e+00 -2.913758e+00 -4.407464e+00 5.205985e+01 7.803894e-04 1.042786e-03 -1.186647e-03 -2.231209e-03 -1.278733e-04 5.086674e-04 -4.604213e-04 -2.265546e-03 -1.313078e-03 -3.152672e-04 -9.525996e-04 -1.796811e-03 5.191382e-03 1.009169e-04 1.186429e-04 9.828676e-05 1.706968e-04 1.161104e-04 7.905974e-05 1.106995e-04 7.473191e-05 2.130609e-05 -2.658203e-05 2.171954e-05 -2.908908e-05 2.814133e-04
<VARIANCE> 39
 6.656408e+01 5.835409e+01 7.190160e+01 6.879092e+01 7.102370e+01 6.692833e+01 7.815089e+01 7.929446e+01 6.314392e+01 4.112098e+01 4.676405e+01 4.451734e+01 2.380227e+02 2.566054e+00 2.689119e+00 2.777471e+00 3.092725e+00 3.423522e+00 3.210265e+00 3.566421e+00 4.221819e+00 3.451841e+00 2.829621e+00 2.887943e+00 2.502554e+00 5.127788e+00 3.897644e-01 4.275480e-01 4.329698e-01 5.216334e-01 6.080842e-01 5.654112e-01 6.353698e-01 7.319050e-01 6.103221e-01 5.274042e-01 5.284045e-01 4.593357e-01 6.864938e-01
<GCONST> 1.336660e+02
<STATE> 3
<MEAN> 39
 -6.773880e+00 -2.991877e+00 -5.917661e-01 -5.375704e+00 -7.295456e+00 -1.815538e+00 -9.070568e+00 -3.809381e+00 -4.291472e+00 -2.960835e+00 -2.913758e+00 -4.407464e+00 5.205985e+01 7.803894e-04 1.042786e-03 -1.186647e-03 -2.231209e-03 -1.278733e-04 5.086674e-04 -4.604213e-04 -2.265546e-03 -1.313078e-03 -3.152672e-04 -9.525996e-04 -1.796811e-03 5.191382e-03 1.009169e-04 1.186429e-04 9.828676e-05 1.706968e-04 1.161104e-04 7.905974e-05 1.106995e-04 7.473191e-05 2.130609e-05 -2.658203e-05 2.171954e-05 -2.908908e-05 2.814133e-04
<VARIANCE> 39
 6.656408e+01 5.835409e+01 7.190160e+01 6.879092e+01 7.102370e+01 6.692833e+01 7.815089e+01 7.929446e+01 6.314392e+01 4.112098e+01 4.676405e+01 4.451734e+01 2.380227e+02 2.566054e+00 2.689119e+00 2.777471e+00 3.092725e+00 3.423522e+00 3.210265e+00 3.566421e+00 4.221819e+00 3.451841e+00 2.829621e+00 2.887943e+00 2.502554e+00 5.127788e+00 3.897644e-01 4.275480e-01 4.329698e-01 5.216334e-01 6.080842e-01 5.654112e-01 6.353698e-01 7.319050e-01 6.103221e-01 5.274042e-01 5.284045e-01 4.593357e-01 6.864938e-01
<GCONST> 1.336660e+02
<STATE> 4
<MEAN> 39
 -6.773880e+00 -2.991877e+00 -5.917661e-01 -5.375704e+00 -7.295456e+00 -1.815538e+00 -9.070568e+00 -3.809381e+00 -4.291472e+00 -2.960835e+00 -2.913758e+00 -4.407464e+00 5.205985e+01 7.803894e-04 1.042786e-03 -1.186647e-03 -2.231209e-03 -1.278733e-04 5.086674e-04 -4.604213e-04 -2.265546e-03 -1.313078e-03 -3.152672e-04 -9.525996e-04 -1.796811e-03 5.191382e-03 1.009169e-04 1.186429e-04 9.828676e-05 1.706968e-04 1.161104e-04 7.905974e-05 1.106995e-04 7.473191e-05 2.130609e-05 -2.658203e-05 2.171954e-05 -2.908908e-05 2.814133e-04
<VARIANCE> 39
 6.656408e+01 5.835409e+01 7.190160e+01 6.879092e+01 7.102370e+01 6.692833e+01 7.815089e+01 7.929446e+01 6.314392e+01 4.112098e+01 4.676405e+01 4.451734e+01 2.380227e+02 2.566054e+00 2.689119e+00 2.777471e+00 3.092725e+00 3.423522e+00 3.210265e+00 3.566421e+00 4.221819e+00 3.451841e+00 2.829621e+00 2.887943e+00 2.502554e+00 5.127788e+00 3.897644e-01 4.275480e-01 4.329698e-01 5.216334e-01 6.080842e-01 5.654112e-01 6.353698e-01 7.319050e-01 6.103221e-01 5.274042e-01 5.284045e-01 4.593357e-01 6.864938e-01
<GCONST> 1.336660e+02
<TRANSP> 5
 0.000000e+00 1.000000e+00 0.000000e+00 0.000000e+00 0.000000e+00
 0.000000e+00 6.000000e-01 4.000000e-01 0.000000e+00 0.000000e+00
 0.000000e+00 0.000000e+00 6.000000e-01 4.000000e-01 0.000000e+00
 0.000000e+00 0.000000e+00 0.000000e+00 7.000000e-01 3.000000e-01
 0.000000e+00 0.000000e+00 0.000000e+00 0.000000e+00 0.000000e+00
<ENDHMM>
~h p
<BEGINHMM>
<NUMSTATES> 5
<STATE> 2
<MEAN> 39
 -6.773880e+00 -2.991877e+00 -5.917661e-01 -5.375704e+00 -7.295456e+00 -1.815538e+00 -9.070568e+00 -3.809381e+00 -4.291472e+00 -2.960835e+00 -2.913758e+00 -4.407464e+00 5.205985e+01 7.803894e-04 1.042786e-03 -1.186647e-03 -2.231209e-03 -1.278733e-04 5.086674e-04 -4.604213e-04 -2.265546e-03 -1.313078e-03 -3.152672e-04 -9.525996e-04 -1.796811e-03 5.191382e-03 1.009169e-04 1.186429e-04 9.828676e-05 1.706968e-04 1.161104e-04 7.905974e-05 1.106995e-04 7.473191e-05 2.130609e-05 -2.658203e-05 2.171954e-05 -2.908908e-05 2.814133e-04
<VARIANCE> 39
 6.656408e+01 5.835409e+01 7.190160e+01 6.879092e+01 7.102370e+01 6.692833e+01 7.815089e+01 7.929446e+01 6.314392e+01 4.112098e+01 4.676405e+01 4.451734e+01 2.380227e+02 2.566054e+00 2.689119e+00 2.777471e+00 3.092725e+00 3.423522e+00 3.210265e+00 3.566421e+00 4.221819e+00 3.451841e+00 2.829621e+00 2.887943e+00 2.502554e+00 5.127788e+00 3.897644e-01 4.275480e-01 4.329698e-01 5.216334e-01 6.080842e-01 5.654112e-01 6.353698e-01 7.319050e-01 6.103221e-01 5.274042e-01 5.284045e-01 4.593357e-01 6.864938e-01
<GCONST> 1.336660e+02
<STATE> 3
<MEAN> 39
 -6.773880e+00 -2.991877e+00 -5.917661e-01 -5.375704e+00 -7.295456e+00 -1.815538e+00 -9.070568e+00 -3.809381e+00 -4.291472e+00 -2.960835e+00 -2.913758e+00 -4.407464e+00 5.205985e+01 7.803894e-04 1.042786e-03 -1.186647e-03 -2.231209e-03 -1.278733e-04 5.086674e-04 -4.604213e-04 -2.265546e-03 -1.313078e-03 -3.152672e-04 -9.525996e-04 -1.796811e-03 5.191382e-03 1.009169e-04 1.186429e-04 9.828676e-05 1.706968e-04 1.161104e-04 7.905974e-05 1.106995e-04 7.473191e-05 2.130609e-05 -2.658203e-05 2.171954e-05 -2.908908e-05 2.814133e-04
<VARIANCE> 39
 6.656408e+01 5.835409e+01 7.190160e+01 6.879092e+01 7.102370e+01 6.692833e+01 7.815089e+01 7.929446e+01 6.314392e+01 4.112098e+01 4.676405e+01 4.451734e+01 2.380227e+02 2.566054e+00 2.689119e+00 2.777471e+00 3.092725e+00 3.423522e+00 3.210265e+00 3.566421e+00 4.221819e+00 3.451841e+00 2.829621e+00 2.887943e+00 2.502554e+00 5.127788e+00 3.897644e-01 4.275480e-01 4.329698e-01 5.216334e-01 6.080842e-01 5.654112e-01 6.353698e-01 7.319050e-01 6.103221e-01 5.274042e-01 5.284045e-01 4.593357e-01 6.864938e-01
<GCONST> 1.336660e+02
<STATE> 4
<MEAN> 39
 -6.773880e+00 -2.991877e+00 -5.917661e-01 -5.375704e+00 -7.295456e+00 -1.815538e+00 -9.070568e+00 -3.809381e+00 -4.291472e+00 -2.960835e+00 -2.913758e+00 -4.407464e+00 5.205985e+01 7.803894e-04 1.042786e-03 -1.186647e-03 -2.231209e-03 -1.278733e-04 5.086674e-04 -4.604213e-04 -2.265546e-03 -1.313078e-03 -3.152672e-04 -9.525996e-04 -1.796811e-03 5.191382e-03 1.009169e-04 1.186429e-04 9.828676e-05 1.706968e-04 1.161104e-04 7.905974e-05 1.106995e-04 7.473191e-05 2.130609e-05 -2.658203e-05 2.171954e-05 -2.908908e-05 2.814133e-04
<VARIANCE> 39
 6.656408e+01 5.835409e+01 7.190160e+01 6.879092e+01 7.102370e+01 6.692833e+01 7.815089e+01 7.929446e+01 6.314392e+01 4.112098e+01 4.676405e+01 4.451734e+01 2.380227e+02 2.566054e+00 2.689119e+00 2.777471e+00 3.092725e+00 3.423522e+00 3.210265e+00 3.566421e+00 4.221819e+00 3.451841e+00 2.829621e+00 2.887943e+00 2.502554e+00 5.127788e+00 3.897644e-01 4.275480e-01 4.329698e-01 5.216334e-01 6.080842e-01 5.654112e-01 6.353698e-01 7.319050e-01 6.103221e-01 5.274042e-01 5.284045e-01 4.593357e-01 6.864938e-01
<GCONST> 1.336660e+02
<TRANSP> 5
 0.000000e+00 1.000000e+00 0.000000e+00 0.000000e+00 0.000000e+00
 0.000000e+00 6.000000e-01 4.000000e-01 0.000000e+00 0.000000e+00
 0.000000e+00 0.000000e+00 6.000000e-01 4.000000e-01 0.000000e+00
 0.000000e+00 0.000000e+00 0.000000e+00 7.000000e-01 3.000000e-01
 0.000000e+00 0.000000e+00 0.000000e+00 0.000000e+00 0.000000e+00
<ENDHMM>
~h er
<BEGINHMM>
<NUMSTATES> 5
<STATE> 2
<MEAN> 39
 -6.773880e+00 -2.991877e+00 -5.917661e-01 -5.375704e+00 -7.295456e+00 -1.815538e+00 -9.070568e+00 -3.809381e+00 -4.291472e+00 -2.960835e+00 -2.913758e+00 -4.407464e+00 5.205985e+01 7.803894e-04 1.042786e-03 -1.186647e-03 -2.231209e-03 -1.278733e-04 5.086674e-04 -4.604213e-04 -2.265546e-03 -1.313078e-03 -3.152672e-04 -9.525996e-04 -1.796811e-03 5.191382e-03 1.009169e-04 1.186429e-04 9.828676e-05 1.706968e-04 1.161104e-04 7.905974e-05 1.106995e-04 7.473191e-05 2.130609e-05 -2.658203e-05 2.171954e-05 -2.908908e-05 2.814133e-04
<VARIANCE> 39
 6.656408e+01 5.835409e+01 7.190160e+01 6.879092e+01 7.102370e+01 6.692833e+01 7.815089e+01 7.929446e+01 6.314392e+01 4.112098e+01 4.676405e+01 4.451734e+01 2.380227e+02 2.566054e+00 2.689119e+00 2.777471e+00 3.092725e+00 3.423522e+00 3.210265e+00 3.566421e+00 4.221819e+00 3.451841e+00 2.829621e+00 2.887943e+00 2.502554e+00 5.127788e+00 3.897644e-01 4.275480e-01 4.329698e-01 5.216334e-01 6.080842e-01 5.654112e-01 6.353698e-01 7.319050e-01 6.103221e-01 5.274042e-01 5.284045e-01 4.593357e-01 6.864938e-01
<GCONST> 1.336660e+02
<STATE> 3
<MEAN> 39
 -6.773880e+00 -2.991877e+00 -5.917661e-01 -5.375704e+00 -7.295456e+00 -1.815538e+00 -9.070568e+00 -3.809381e+00 -4.291472e+00 -2.960835e+00 -2.913758e+00 -4.407464e+00 5.205985e+01 7.803894e-04 1.042786e-03 -1.186647e-03 -2.231209e-03 -1.278733e-04 5.086674e-04 -4.604213e-04 -2.265546e-03 -1.313078e-03 -3.152672e-04 -9.525996e-04 -1.796811e-03 5.191382e-03 1.009169e-04 1.186429e-04 9.828676e-05 1.706968e-04 1.161104e-04 7.905974e-05 1.106995e-04 7.473191e-05 2.130609e-05 -2.658203e-05 2.171954e-05 -2.908908e-05 2.814133e-04
<VARIANCE> 39
 6.656408e+01 5.835409e+01 7.190160e+01 6.879092e+01 7.102370e+01 6.692833e+01 7.815089e+01 7.929446e+01 6.314392e+01 4.112098e+01 4.676405e+01 4.451734e+01 2.380227e+02 2.566054e+00 2.689119e+00 2.777471e+00 3.092725e+00 3.423522e+00 3.210265e+00 3.566421e+00 4.221819e+00 3.451841e+00 2.829621e+00 2.887943e+00 2.502554e+00 5.127788e+00 3.897644e-01 4.275480e-01 4.329698e-01 5.216334e-01 6.080842e-01 5.654112e-01 6.353698e-01 7.319050e-01 6.103221e-01 5.274042e-01 5.284045e-01 4.593357e-01 6.864938e-01
<GCONST> 1.336660e+02
<STATE> 4
<MEAN> 39
 -6.773880e+00 -2.991877e+00 -5.917661e-01 -5.375704e+00 -7.295456e+00 -1.815538e+00 -9.070568e+00 -3.809381e+00 -4.291472e+00 -2.960835e+00 -2.913758e+00 -4.407464e+00 5.205985e+01 7.803894e-04 1.042786e-03 -1.186647e-03 -2.231209e-03 -1.278733e-04 5.086674e-04 -4.604213e-04 -2.265546e-03 -1.313078e-03 -3.152672e-04 -9.525996e-04 -1.796811e-03 5.191382e-03 1.009169e-04 1.186429e-04 9.828676e-05 1.706968e-04 1.161104e-04 7.905974e-05 1.106995e-04 7.473191e-05 2.130609e-05 -2.658203e-05 2.171954e-05 -2.908908e-05 2.814133e-04
<VARIANCE> 39
 6.656408e+01 5.835409e+01 7.190160e+01 6.879092e+01 7.102370e+01 6.692833e+01 7.815089e+01 7.929446e+01 6.314392e+01 4.112098e+01 4.676405e+01 4.451734e+01 2.380227e+02 2.566054e+00 2.689119e+00 2.777471e+00 3.092725e+00 3.423522e+00 3.210265e+00 3.566421e+00 4.221819e+00 3.451841e+00 2.829621e+00 2.887943e+00 2.502554e+00 5.127788e+00 3.897644e-01 4.275480e-01 4.329698e-01 5.216334e-01 6.080842e-01 5.654112e-01 6.353698e-01 7.319050e-01 6.103221e-01 5.274042e-01 5.284045e-01 4.593357e-01 6.864938e-01
<GCONST> 1.336660e+02
<TRANSP> 5
 0.000000e+00 1.000000e+00 0.000000e+00 0.000000e+00 0.000000e+00
 0.000000e+00 6.000000e-01 4.000000e-01 0.000000e+00 0.000000e+00
 0.000000e+00 0.000000e+00 6.000000e-01 4.000000e-01 0.000000e+00
 0.000000e+00 0.000000e+00 0.000000e+00 7.000000e-01 3.000000e-01
 0.000000e+00 0.000000e+00 0.000000e+00 0.000000e+00 0.000000e+00
<ENDHMM>
~h eh
<BEGINHMM>
<NUMSTATES> 5
<STATE> 2
<MEAN> 39
 -6.773880e+00 -2.991877e+00 -5.917661e-01 -5.375704e+00 -7.295456e+00 -1.815538e+00 -9.070568e+00 -3.809381e+00 -4.291472e+00 -2.960835e+00 -2.913758e+00 -4.407464e+00 5.205985e+01 7.803894e-04 1.042786e-03 -1.186647e-03 -2.231209e-03 -1.278733e-04 5.086674e-04 -4.604213e-04 -2.265546e-03 -1.313078e-03 -3.152672e-04 -9.525996e-04 -1.796811e-03 5.191382e-03 1.009169e-04 1.186429e-04 9.828676e-05 1.706968e-04 1.161104e-04 7.905974e-05 1.106995e-04 7.473191e-05 2.130609e-05 -2.658203e-05 2.171954e-05 -2.908908e-05 2.814133e-04
<VARIANCE> 39
 6.656408e+01 5.835409e+01 7.190160e+01 6.879092e+01 7.102370e+01 6.692833e+01 7.815089e+01 7.929446e+01 6.314392e+01 4.112098e+01 4.676405e+01 4.451734e+01 2.380227e+02 2.566054e+00 2.689119e+00 2.777471e+00 3.092725e+00 3.423522e+00 3.210265e+00 3.566421e+00 4.221819e+00 3.451841e+00 2.829621e+00 2.887943e+00 2.502554e+00 5.127788e+00 3.897644e-01 4.275480e-01 4.329698e-01 5.216334e-01 6.080842e-01 5.654112e-01 6.353698e-01 7.319050e-01 6.103221e-01 5.274042e-01 5.284045e-01 4.593357e-01 6.864938e-01
<GCONST> 1.336660e+02
<STATE> 3
<MEAN> 39
 -6.773880e+00 -2.991877e+00 -5.917661e-01 -5.375704e+00 -7.295456e+00 -1.815538e+00 -9.070568e+00 -3.809381e+00 -4.291472e+00 -2.960835e+00 -2.913758e+00 -4.407464e+00 5.205985e+01 7.803894e-04 1.042786e-03 -1.186647e-03 -2.231209e-03 -1.278733e-04 5.086674e-04 -4.604213e-04 -2.265546e-03 -1.313078e-03 -3.152672e-04 -9.525996e-04 -1.796811e-03 5.191382e-03 1.009169e-04 1.186429e-04 9.828676e-05 1.706968e-04 1.161104e-04 7.905974e-05 1.106995e-04 7.473191e-05 2.130609e-05 -2.658203e-05 2.171954e-05 -2.908908e-05 2.814133e-04
<VARIANCE> 39
 6.656408e+01 5.835409e+01 7.190160e+01 6.879092e+01 7.102370e+01 6.692833e+01 7.815089e+01 7.929446e+01 6.314392e+01 4.112098e+01 4.676405e+01 4.451734e+01 2.380227e+02 2.566054e+00 2.689119e+00 2.777471e+00 3.092725e+00 3.423522e+00 3.210265e+00 3.566421e+00 4.221819e+00 3.451841e+00 2.829621e+00 2.887943e+00 2.502554e+00 5.127788e+00 3.897644e-01 4.275480e-01 4.329698e-01 5.216334e-01 6.080842e-01 5.654112e-01 6.353698e-01 7.319050e-01 6.103221e-01 5.274042e-01 5.284045e-01 4.593357e-01 6.864938e-01
<GCONST> 1.336660e+02
<STATE> 4
<MEAN> 39
 -6.773880e+00 -2.991877e+00 -5.917661e-01 -5.375704e+00 -7.295456e+00 -1.815538e+00 -9.070568e+00 -3.809381e+00 -4.291472e+00 -2.960835e+00 -2.913758e+00 -4.407464e+00 5.205985e+01 7.803894e-04 1.042786e-03 -1.186647e-03 -2.231209e-03 -1.278733e-04 5.086674e-04 -4.604213e-04 -2.265546e-03 -1.313078e-03 -3.152672e-04 -9.525996e-04 -1.796811e-03 5.191382e-03 1.009169e-04 1.186429e-04 9.828676e-05 1.706968e-04 1.161104e-04 7.905974e-05 1.106995e-04 7.473191e-05 2.130609e-05 -2.658203e-05 2.171954e-05 -2.908908e-05 2.814133e-04
<VARIANCE> 39
 6.656408e+01 5.835409e+01 7.190160e+01 6.879092e+01 7.102370e+01 6.692833e+01 7.815089e+01 7.929446e+01 6.314392e+01 4.112098e+01 4.676405e+01 4.451734e+01 2.380227e+02 2.566054e+00 2.689119e+00 2.777471e+00 3.092725e+00 3.423522e+00 3.210265e+00 3.566421e+00 4.221819e+00 3.451841e+00 2.829621e+00 2.887943e+00 2.502554e+00 5.127788e+00 3.897644e-01 4.275480e-01 4.329698e-01 5.216334e-01 6.080842e-01 5.654112e-01 6.353698e-01 7.319050e-01 6.103221e-01 5.274042e-01 5.284045e-01 4.593357e-01 6.864938e-01
<GCONST> 1.336660e+02
<TRANSP> 5
 0.000000e+00 1.000000e+00 0.000000e+00 0.000000e+00 0.000000e+00
 0.000000e+00 6.000000e-01 4.000000e-01 0.000000e+00 0.000000e+00
 0.000000e+00 0.000000e+00 6.000000e-01 4.000000e-01 0.000000e+00
 0.000000e+00 0.000000e+00 0.000000e+00 7.000000e-01 3.000000e-01
 0.000000e+00 0.000000e+00 0.000000e+00 0.000000e+00 0.000000e+00
<ENDHMM>
~h r
<BEGINHMM>
<NUMSTATES> 5
<STATE> 2
<MEAN> 39
 -6.773880e+00 -2.991877e+00 -5.917661e-01 -5.375704e+00 -7.295456e+00 -1.815538e+00 -9.070568e+00 -3.809381e+00 -4.291472e+00 -2.960835e+00 -2.913758e+00 -4.407464e+00 5.205985e+01 7.803894e-04 1.042786e-03 -1.186647e-03 -2.231209e-03 -1.278733e-04 5.086674e-04 -4.604213e-04 -2.265546e-03 -1.313078e-03 -3.152672e-04 -9.525996e-04 -1.796811e-03 5.191382e-03 1.009169e-04 1.186429e-04 9.828676e-05 1.706968e-04 1.161104e-04 7.905974e-05 1.106995e-04 7.473191e-05 2.130609e-05 -2.658203e-05 2.171954e-05 -2.908908e-05 2.814133e-04
<VARIANCE> 39
 6.656408e+01 5.835409e+01 7.190160e+01 6.879092e+01 7.102370e+01 6.692833e+01 7.815089e+01 7.929446e+01 6.314392e+01 4.112098e+01 4.676405e+01 4.451734e+01 2.380227e+02 2.566054e+00 2.689119e+00 2.777471e+00 3.092725e+00 3.423522e+00 3.210265e+00 3.566421e+00 4.221819e+00 3.451841e+00 2.829621e+00 2.887943e+00 2.502554e+00 5.127788e+00 3.897644e-01 4.275480e-01 4.329698e-01 5.216334e-01 6.080842e-01 5.654112e-01 6.353698e-01 7.319050e-01 6.103221e-01 5.274042e-01 5.284045e-01 4.593357e-01 6.864938e-01
<GCONST> 1.336660e+02
<STATE> 3
<MEAN> 39
 -6.773880e+00 -2.991877e+00 -5.917661e-01 -5.375704e+00 -7.295456e+00 -1.815538e+00 -9.070568e+00 -3.809381e+00 -4.291472e+00 -2.960835e+00 -2.913758e+00 -4.407464e+00 5.205985e+01 7.803894e-04 1.042786e-03 -1.186647e-03 -2.231209e-03 -1.278733e-04 5.086674e-04 -4.604213e-04 -2.265546e-03 -1.313078e-03 -3.152672e-04 -9.525996e-04 -1.796811e-03 5.191382e-03 1.009169e-04 1.186429e-04 9.828676e-05 1.706968e-04 1.161104e-04 7.905974e-05 1.106995e-04 7.473191e-05 2.130609e-05 -2.658203e-05 2.171954e-05 -2.908908e-05 2.814133e-04
<VARIANCE> 39
 6.656408e+01 5.835409e+01 7.190160e+01 6.879092e+01 7.102370e+01 6.692833e+01 7.815089e+01 7.929446e+01 6.314392e+01 4.112098e+01 4.676405e+01 4.451734e+01 2.380227e+02 2.566054e+00 2.689119e+00 2.777471e+00 3.092725e+00 3.423522e+00 3.210265e+00 3.566421e+00 4.221819e+00 3.451841e+00 2.829621e+00 2.887943e+00 2.502554e+00 5.127788e+00 3.897644e-01 4.275480e-01 4.329698e-01 5.216334e-01 6.080842e-01 5.654112e-01 6.353698e-01 7.319050e-01 6.103221e-01 5.274042e-01 5.284045e-01 4.593357e-01 6.864938e-01
<GCONST> 1.336660e+02
<STATE> 4
<MEAN> 39
 -6.773880e+00 -2.991877e+00 -5.917661e-01 -5.375704e+00 -7.295456e+00 -1.815538e+00 -9.070568e+00 -3.809381e+00 -4.291472e+00 -2.960835e+00 -2.913758e+00 -4.407464e+00 5.205985e+01 7.803894e-04 1.042786e-03 -1.186647e-03 -2.231209e-03 -1.278733e-04 5.086674e-04 -4.604213e-04 -2.265546e-03 -1.313078e-03 -3.152672e-04 -9.525996e-04 -1.796811e-03 5.191382e-03 1.009169e-04 1.186429e-04 9.828676e-05 1.706968e-04 1.161104e-04 7.905974e-05 1.106995e-04 7.473191e-05 2.130609e-05 -2.658203e-05 2.171954e-05 -2.908908e-05 2.814133e-04
<VARIANCE> 39
 6.656408e+01 5.835409e+01 7.190160e+01 6.879092e+01 7.102370e+01 6.692833e+01 7.815089e+01 7.929446e+01 6.314392e+01 4.112098e+01 4.676405e+01 4.451734e+01 2.380227e+02 2.566054e+00 2.689119e+00 2.777471e+00 3.092725e+00 3.423522e+00 3.210265e+00 3.566421e+00 4.221819e+00 3.451841e+00 2.829621e+00 2.887943e+00 2.502554e+00 5.127788e+00 3.897644e-01 4.275480e-01 4.329698e-01 5.216334e-01 6.080842e-01 5.654112e-01 6.353698e-01 7.319050e-01 6.103221e-01 5.274042e-01 5.284045e-01 4.593357e-01 6.864938e-01
<GCONST> 1.336660e+02
<TRANSP> 5
 0.000000e+00 1.000000e+00 0.000000e+00 0.000000e+00 0.000000e+00
 0.000000e+00 6.000000e-01 4.000000e-01 0.000000e+00 0.000000e+00
 0.000000e+00 0.000000e+00 6.000000e-01 4.000000e-01 0.000000e+00
 0.000000e+00 0.000000e+00 0.000000e+00 7.000000e-01 3.000000e-01
 0.000000e+00 0.000000e+00 0.000000e+00 0.000000e+00 0.000000e+00
<ENDHMM>
~h f
<BEGINHMM>
<NUMSTATES> 5
<STATE> 2
<MEAN> 39
 -6.773880e+00 -2.991877e+00 -5.917661e-01 -5.375704e+00 -7.295456e+00 -1.815538e+00 -9.070568e+00 -3.809381e+00 -4.291472e+00 -2.960835e+00 -2.913758e+00 -4.407464e+00 5.205985e+01 7.803894e-04 1.042786e-03 -1.186647e-03 -2.231209e-03 -1.278733e-04 5.086674e-04 -4.604213e-04 -2.265546e-03 -1.313078e-03 -3.152672e-04 -9.525996e-04 -1.796811e-03 5.191382e-03 1.009169e-04 1.186429e-04 9.828676e-05 1.706968e-04 1.161104e-04 7.905974e-05 1.106995e-04 7.473191e-05 2.130609e-05 -2.658203e-05 2.171954e-05 -2.908908e-05 2.814133e-04
<VARIANCE> 39
 6.656408e+01 5.835409e+01 7.190160e+01 6.879092e+01 7.102370e+01 6.692833e+01 7.815089e+01 7.929446e+01 6.314392e+01 4.112098e+01 4.676405e+01 4.451734e+01 2.380227e+02 2.566054e+00 2.689119e+00 2.777471e+00 3.092725e+00 3.423522e+00 3.210265e+00 3.566421e+00 4.221819e+00 3.451841e+00 2.829621e+00 2.887943e+00 2.502554e+00 5.127788e+00 3.897644e-01 4.275480e-01 4.329698e-01 5.216334e-01 6.080842e-01 5.654112e-01 6.353698e-01 7.319050e-01 6.103221e-01 5.274042e-01 5.284045e-01 4.593357e-01 6.864938e-01
<GCONST> 1.336660e+02
<STATE> 3
<MEAN> 39
 -6.773880e+00 -2.991877e+00 -5.917661e-01 -5.375704e+00 -7.295456e+00 -1.815538e+00 -9.070568e+00 -3.809381e+00 -4.291472e+00 -2.960835e+00 -2.913758e+00 -4.407464e+00 5.205985e+01 7.803894e-04 1.042786e-03 -1.186647e-03 -2.231209e-03 -1.278733e-04 5.086674e-04 -4.604213e-04 -2.265546e-03 -1.313078e-03 -3.152672e-04 -9.525996e-04 -1.796811e-03 5.191382e-03 1.009169e-04 1.186429e-04 9.828676e-05 1.706968e-04 1.161104e-04 7.905974e-05 1.106995e-04 7.473191e-05 2.130609e-05 -2.658203e-05 2.171954e-05 -2.908908e-05 2.814133e-04
<VARIANCE> 39
 6.656408e+01 5.835409e+01 7.190160e+01 6.879092e+01 7.102370e+01 6.692833e+01 7.815089e+01 7.929446e+01 6.314392e+01 4.112098e+01 4.676405e+01 4.451734e+01 2.380227e+02 2.566054e+00 2.689119e+00 2.777471e+00 3.092725e+00 3.423522e+00 3.210265e+00 3.566421e+00 4.221819e+00 3.451841e+00 2.829621e+00 2.887943e+00 2.502554e+00 5.127788e+00 3.897644e-01 4.275480e-01 4.329698e-01 5.216334e-01 6.080842e-01 5.654112e-01 6.353698e-01 7.319050e-01 6.103221e-01 5.274042e-01 5.284045e-01 4.593357e-01 6.864938e-01
<GCONST> 1.336660e+02
<STATE> 4
<MEAN> 39
 -6.773880e+00 -2.991877e+00 -5.917661e-01 -5.375704e+00 -7.295456e+00 -1.815538e+00 -9.070568e+00 -3.809381e+00 -4.291472e+00 -2.960835e+00 -2.913758e+00 -4.407464e+00 5.205985e+01 7.803894e-04 1.042786e-03 -1.186647e-03 -2.231209e-03 -1.278733e-04 5.086674e-04 -4.604213e-04 -2.265546e-03 -1.313078e-03 -3.152672e-04 -9.525996e-04 -1.796811e-03 5.191382e-03 1.009169e-04 1.186429e-04 9.828676e-05 1.706968e-04 1.161104e-04 7.905974e-05 1.106995e-04 7.473191e-05 2.130609e-05 -2.658203e-05 2.171954e-05 -2.908908e-05 2.814133e-04
<VARIANCE> 39
 6.656408e+01 5.835409e+01 7.190160e+01 6.879092e+01 7.102370e+01 6.692833e+01 7.815089e+01 7.929446e+01 6.314392e+01 4.112098e+01 4.676405e+01 4.451734e+01 2.380227e+02 2.566054e+00 2.689119e+00 2.777471e+00 3.092725e+00 3.423522e+00 3.210265e+00 3.566421e+00 4.221819e+00 3.451841e+00 2.829621e+00 2.887943e+00 2.502554e+00 5.127788e+00 3.897644e-01 4.275480e-01 4.329698e-01 5.216334e-01 6.080842e-01 5.654112e-01 6.353698e-01 7.319050e-01 6.103221e-01 5.274042e-01 5.284045e-01 4.593357e-01 6.864938e-01
<GCONST> 1.336660e+02
<TRANSP> 5
 0.000000e+00 1.000000e+00 0.000000e+00 0.000000e+00 0.000000e+00
 0.000000e+00 6.000000e-01 4.000000e-01 0.000000e+00 0.000000e+00
 0.000000e+00 0.000000e+00 6.000000e-01 4.000000e-01 0.000000e+00
 0.000000e+00 0.000000e+00 0.000000e+00 7.000000e-01 3.000000e-01
 0.000000e+00 0.000000e+00 0.000000e+00 0.000000e+00 0.000000e+00
<ENDHMM>
~h g
<BEGINHMM>
<NUMSTATES> 5
<STATE> 2
<MEAN> 39
 -6.773880e+00 -2.991877e+00 -5.917661e-01 -5.375704e+00 -7.295456e+00 -1.815538e+00 -9.070568e+00 -3.809381e+00 -4.291472e+00 -2.960835e+00 -2.913758e+00 -4.407464e+00 5.205985e+01 7.803894e-04 1.042786e-03 -1.186647e-03 -2.231209e-03 -1.278733e-04 5.086674e-04 -4.604213e-04 -2.265546e-03 -1.313078e-03 -3.152672e-04 -9.525996e-04 -1.796811e-03 5.191382e-03 1.009169e-04 1.186429e-04 9.828676e-05 1.706968e-04 1.161104e-04 7.905974e-05 1.106995e-04 7.473191e-05 2.130609e-05 -2.658203e-05 2.171954e-05 -2.908908e-05 2.814133e-04
<VARIANCE> 39
